%YAML:1.0
---
opencv_ml_svm:
   format: 3
   svmType: C_SVC
   kernel:
      type: RBF
      gamma: 0.10000000000000001
   C: 1.
   term_criteria: { epsilon:1.1920928955078125e-07, iterations:1000 }
   var_count: 64
   class_count: 2
   class_labels: !!opencv-matrix
      rows: 2
      cols: 1
      dt: i
      data: [ 0, 1 ]
   sv_total: 3
   support_vectors:
      - [ 0.0115535501, 0.0121325348, 0.0417280421, 0.404604703,
          0.00146368332, 0.0892524198, 0.0737095699, 0.0748645738,
          0.0122411754, 0.00760002946, 0.0532272719, 0.9012236,
          0.00017853413, 6.74833063e-05, 0.00273956265, 3.70787404e-07,
          0.00274809077, 0.000294590602, 0.000262517482, 0.00180981332,
          2.1691063e-05, 1.85393702e-07, 1.72416148e-05, 0.,
          4.54214569e-05, 1.48314962e-06, 0.000121803663, 0.000121989055,
          0., 7.78653521e-06, 1.66854329e-06, 0., 0., 7.97192934e-06,
          0.000349652517, 2.65112994e-05, 0., 0.00046311348,
          0.00181259424, 0., 0., 0., 1.85393702e-07, 3.15169309e-05, 0.,
          0., 0., 0., 6.30338582e-06, 0., 0., 2.96629923e-06, 0., 0., 0.,
          0., 0.000398040283, 2.41011821e-06, 1.85393702e-07,
          9.41800026e-05, 3.70787404e-07, 0., 9.02867323e-05,
          1.90955507e-05 ]
      - [ 0.000815012609, 0.00027126458, 0.000564874965, 0.0373823717,
          3.25029941e-06, 0.000490524399, 0.00304146786, 1.82829353e-05,
          0.0173842274, 0.0193043407, 0.0580009185, 0.996307969,
          0.010059135, 0.0226140935, 0.0270503461, 8.50495053e-05,
          0.00779855205, 0.000548894343, 0.000483482057, 0.0130783925,
          0.0185206123, 6.5141423e-05, 1.54389236e-05, 0., 0.00155296607,
          1.93663673e-05, 6.93397233e-05, 0.000268149714, 3.11487042e-06,
          4.87544912e-06, 1.21886228e-06, 0., 5.24110801e-05,
          2.20749516e-05, 0.000190548817, 0.000111729045, 0.,
          0.000855641323, 0.000557697203, 0., 4.53687644e-05, 0., 0.,
          0.000102249003, 0., 0., 0., 0., 5.41716588e-07, 0., 0.,
          1.62514971e-06, 0., 0., 0., 0., 5.4848806e-05, 6.77145749e-07,
          4.3337327e-06, 0.000137731447, 0., 3.06069887e-05,
          0.00043716529, 1.42200606e-05 ]
      - [ 0.013345506, 0.0116722081, 0.0999901965, 0.802182555,
          0.000171112959, 0.00285782549, 0.00276498543, 4.34848687e-07,
          0.0249274839, 0.0212103967, 0.298177928, 0.50046736,
          0.0252418797, 0.0365383774, 0.00572413066, 0., 0.01165938,
          0.000262648595, 0.00143021729, 0.024998147, 0.0369280018,
          6.91409441e-05, 0., 0., 0.00594329461, 9.71886839e-05,
          0.00053312449, 0.00519535458, 4.56591124e-06, 8.91439777e-06,
          0., 0., 0.00183158263, 9.91455017e-05, 0.000492900959,
          0.000571173732, 5.00075976e-06, 0.0023629677, 2.17424349e-05,
          0., 0.00127410667, 6.84886691e-05, 0.000152414461,
          0.0018500638, 2.60909201e-06, 0., 0., 0., 0.000161546282,
          2.5221223e-05, 6.2400788e-05, 0.00199834723, 1.08712175e-06,
          0., 0., 0., 0.00272715348, 0.000616398, 0.00169090915,
          0.0387548022, 1.32628847e-05, 0.000444850215, 0.000612266944,
          1.06537927e-05 ]
   decision_functions:
      -
         sv_count: 3
         rho: -1.0149717330932617
         alpha: [ 0.63517468990795733, 0.36482531009204272, -1. ]
         index: [ 1, 2, 0 ]
