%YAML:1.0
---
opencv_ml_svm:
   format: 3
   svmType: C_SVC
   kernel:
      type: RBF
      gamma: 1.0000000000000001e-01
   C: 1.
   term_criteria: { epsilon:1.1920928955078125e-07, iterations:1000 }
   var_count: 64
   class_count: 2
   class_labels: !!opencv-matrix
      rows: 2
      cols: 1
      dt: i
      data: [ 0, 1 ]
   sv_total: 184
   support_vectors:
      - [ 0., 1.06355590e-04, 1.94214561e-04, 9.53866303e-01,
          1.84966248e-05, 1.24852217e-04, 6.42757688e-04, 2.98706621e-01,
          1.06355590e-04, 2.37681624e-03, 7.60673685e-03, 2.15809364e-02,
          1.92827312e-03, 1.71602443e-02, 2.28433311e-03, 1.63232710e-03,
          0., 4.00451943e-03, 4.12937161e-03, 1.16528734e-03,
          1.98838723e-04, 3.32939235e-04, 9.24831238e-06, 0., 0.,
          5.31777972e-04, 2.39993702e-03, 1.29938789e-03, 0., 0., 0., 0.,
          0., 4.62415619e-06, 3.88429122e-04, 5.01258532e-03, 0., 0., 0.,
          0., 0., 0., 2.77449362e-05, 1.56758900e-03, 0., 0., 0., 0., 0.,
          0., 9.24831238e-06, 2.61264830e-03, 0., 0., 0., 0., 0., 0.,
          4.62415619e-06, 8.87837959e-04, 0., 0., 0., 0. ]
      - [ 0., 8.66850041e-06, 1.98075245e-03, 9.94996488e-01,
          2.16712506e-05, 7.36822549e-05, 2.16712506e-05, 4.33425021e-06,
          0., 1.43030251e-04, 2.57021026e-03, 1.35705378e-02,
          3.90082532e-05, 5.08407550e-03, 8.57228041e-02, 2.91955099e-02,
          0., 5.20110043e-05, 1.04455429e-03, 3.90949380e-03,
          2.34049512e-04, 5.02339611e-03, 3.82931009e-02, 2.25381009e-04,
          0., 0., 7.80165064e-05, 9.44866566e-04, 3.03397519e-05,
          4.33425021e-06, 0., 0., 0., 0., 5.20110043e-05, 3.44139477e-03,
          4.33425021e-06, 0., 0., 0., 0., 0., 3.46740009e-04,
          2.70023779e-03, 0., 0., 0., 0., 0., 0., 3.38071521e-04,
          5.66919940e-03, 0., 0., 0., 0., 0., 0., 4.76767527e-05,
          4.33425012e-04, 0., 0., 0., 0. ]
      - [ 3.08915151e-06, 3.70698181e-05, 3.21271771e-04, 9.96171057e-01,
          0., 9.57636948e-05, 1.60635886e-04, 2.16240605e-05,
          9.26745452e-06, 7.78466172e-04, 1.45715280e-02, 3.31496857e-02,
          0., 5.80142671e-03, 7.78744221e-02, 1.21002067e-02,
          3.08915151e-06, 2.59488734e-04, 8.89366679e-03, 1.81951025e-03,
          0., 3.08915151e-05, 6.17830301e-06, 0., 0., 9.26745452e-06,
          4.97353380e-04, 6.02384564e-04, 0., 0., 0., 0., 0., 0.,
          1.14298608e-04, 8.86586495e-04, 0., 0., 0., 0., 0., 0.,
          2.47132120e-05, 7.41396332e-04, 0., 0., 0., 0., 0., 0.,
          3.08915151e-06, 1.34378090e-03, 0., 0., 0., 0., 0.,
          6.17830301e-06, 0., 6.85791660e-04, 0., 0., 0., 0. ]
      - [ 5.11555936e-06, 1.53466790e-05, 3.06933580e-05, 9.91666555e-01,
          5.11555936e-06, 0., 7.16178329e-05, 1.53466790e-05,
          1.02311184e-04, 1.01799634e-03, 6.93669869e-03, 8.46932009e-02,
          2.04622367e-04, 9.63771343e-03, 7.04412535e-02, 5.41481972e-02,
          0., 0., 1.12542308e-04, 4.59377235e-03, 0., 9.20800667e-05,
          9.20800667e-05, 0., 0., 0., 0., 7.05947168e-04, 0., 0., 0., 0.,
          0., 0., 0., 1.27377431e-03, 0., 0., 0., 0., 0., 0., 0.,
          1.35306548e-02, 0., 0., 0., 0., 0., 0., 0., 3.75993620e-03, 0.,
          0., 0., 0., 5.11555936e-06, 0., 0., 3.41770537e-02, 0., 0., 0.,
          0. ]
      - [ 0., 0., 7.57236325e-04, 9.33803856e-01, 0., 6.62581762e-04,
          2.44524237e-03, 3.57683748e-01, 0., 0., 7.88787875e-05,
          5.62142814e-03, 0., 3.99652519e-04, 4.04911087e-04,
          1.30412926e-03, 0., 0., 0., 8.20339366e-04, 0., 0., 0., 0., 0.,
          0., 0., 5.78444393e-04, 0., 0., 0., 0., 0., 0., 0.,
          5.05875936e-03, 0., 0., 0., 0., 0., 0., 0., 5.10082813e-04, 0.,
          0., 0., 0., 0., 0., 0., 2.12972728e-03, 0., 0., 0., 0., 0., 0.,
          0., 7.88787846e-04, 0., 0., 0., 0. ]
      - [ 0., 2.68209242e-05, 5.05766016e-04, 9.69978750e-01, 0.,
          1.05751073e-03, 1.57093990e-03, 1.49871498e-01, 0., 0., 0.,
          1.96750648e-02, 0., 6.89680892e-05, 2.33725194e-04,
          1.90371096e-01, 0., 0., 0., 9.31069255e-04, 0., 0., 0., 0., 0.,
          0., 0., 4.25686408e-03, 0., 0., 0., 0., 0., 0., 0.,
          3.64764570e-03, 0., 0., 0., 0., 0., 0., 0., 6.51365321e-04, 0.,
          0., 0., 0., 0., 0., 0., 2.70508183e-03, 0., 0., 0., 0., 0., 0.,
          7.66312132e-06, 2.76638684e-03, 0., 0., 0., 0. ]
      - [ 0., 0., 1.13805085e-02, 9.44570899e-01, 1.13464694e-05,
          2.38275854e-04, 4.93004080e-03, 3.21950406e-01, 0., 0.,
          5.67323468e-06, 2.20575370e-02, 0., 1.13464694e-05,
          3.40394072e-05, 4.43079621e-02, 0., 0., 0., 1.23109191e-03, 0.,
          0., 0., 0., 0., 0., 0., 1.25945813e-03, 0., 0., 0., 0., 0., 0.,
          0., 4.50454839e-03, 0., 0., 0., 0., 0., 0., 0., 1.33491214e-02,
          0., 0., 0., 0., 0., 0., 2.26929387e-05, 2.51324289e-02, 0., 0.,
          0., 0., 0., 0., 2.13313615e-03, 2.63124630e-02, 2.26929387e-05,
          5.10591126e-05, 1.13464694e-05, 0. ]
      - [ 0., 0., 4.87368106e-06, 9.75979030e-01, 0., 2.92420864e-05,
          2.22434811e-02, 2.16722846e-01, 0., 0., 0., 4.48378647e-04, 0.,
          0., 0., 9.74736235e-04, 0., 0., 0., 4.87368106e-06, 0., 0., 0.,
          0., 0., 0., 0., 0., 0., 0., 0., 0., 0., 0., 0., 0., 0., 0., 0.,
          0., 0., 0., 0., 9.74736213e-06, 0., 0., 0., 0., 0., 0., 0.,
          5.36104926e-05, 0., 0., 0., 0., 0., 0., 0., 4.67873382e-04, 0.,
          0., 0., 0. ]
      - [ 0., 4.10465782e-06, 2.91430712e-04, 9.94275391e-01, 0.,
          2.05232900e-05, 2.46279469e-05, 1.64186313e-05, 0.,
          1.53103739e-03, 4.70927395e-02, 2.87572332e-02, 1.64186313e-05,
          6.44390211e-02, 3.53369974e-02, 0., 1.10825764e-04,
          2.27439087e-02, 3.35391574e-02, 8.11490882e-03, 0.,
          2.04329863e-02, 9.72803915e-04, 0., 1.23139735e-05,
          2.70907418e-04, 9.72803915e-04, 3.20163299e-03, 0., 0., 0., 0.,
          0., 2.87326038e-05, 4.76140296e-04, 1.13863209e-02, 0., 0., 0.,
          0., 0., 0., 1.64186313e-05, 2.58018784e-02, 0., 0., 0., 0., 0.,
          0., 8.20931564e-06, 5.89018408e-03, 0., 0., 0., 0., 0., 0.,
          4.10465782e-06, 4.76140296e-04, 0., 0., 0., 0. ]
      - [ 0., 0., 8.94912926e-04, 9.70349491e-01, 0., 0., 0.,
          1.87235668e-01, 0., 1.41503333e-04, 7.93183502e-03,
          1.76764429e-02, 0., 1.64679289e-02, 1.11271337e-01,
          1.01304911e-01, 0., 1.52976572e-05, 1.46092626e-03,
          1.88161188e-03, 0., 1.07083601e-04, 3.44197295e-04, 0., 0., 0.,
          1.52976572e-05, 8.10775848e-04, 0., 0., 0., 0., 0., 0.,
          3.48021713e-04, 4.59312135e-03, 0., 0., 0., 0., 0., 0.,
          9.94347720e-05, 2.34054145e-03, 0., 0., 0., 0., 0., 0.,
          1.07083601e-04, 6.29498577e-03, 0., 0., 0., 0., 0., 0.,
          1.14732429e-05, 7.07516621e-04, 0., 0., 0., 0. ]
      - [ 0., 9.95663795e-05, 8.96097394e-04, 9.71664131e-01, 0.,
          2.48915949e-05, 1.02470396e-03, 2.06575349e-01, 4.14859915e-06,
          6.02791458e-03, 8.70790984e-03, 1.84031855e-02, 0.,
          1.83782948e-03, 5.04843034e-02, 9.97240245e-02, 0.,
          5.47615113e-04, 3.55120096e-03, 1.92909862e-03, 0.,
          7.05261846e-05, 1.10228276e-02, 0., 0., 3.73373914e-05,
          5.39317880e-05, 1.54742750e-03, 0., 0., 0., 0., 0.,
          4.14859915e-06, 7.88233810e-05, 5.02810208e-03, 0., 0., 0., 0.,
          0., 0., 0., 2.59287446e-03, 0., 0., 0., 0., 0., 0., 0.,
          6.39713975e-03, 0., 0., 0., 0., 0., 0., 8.29719829e-06,
          5.69187803e-03, 0., 0., 0., 0. ]
      - [ 0., 4.09575179e-03, 1.04223313e-02, 9.28691089e-01, 0.,
          1.53443150e-04, 2.89181335e-04, 3.22071284e-01, 0.,
          2.41968053e-04, 2.47869699e-04, 9.95610002e-03, 0.,
          1.88853111e-04, 3.36394616e-04, 1.83116704e-01, 0.,
          5.90165982e-05, 2.95082991e-05, 1.33967679e-03, 0.,
          1.41639830e-04, 5.90165982e-05, 0., 0., 6.49182548e-05,
          2.36066389e-05, 1.06229878e-03, 0., 0., 0., 0., 0.,
          8.26232354e-05, 5.31149381e-05, 4.46755625e-03, 0., 0., 0., 0.,
          0., 0., 1.77049787e-05, 8.67543975e-04, 0., 0., 0., 0., 0., 0.,
          5.90165973e-06, 4.70362278e-03, 0., 0., 0., 0., 0.,
          2.36066389e-05, 2.95082991e-05, 7.79019087e-04, 0., 0., 0., 0. ]
      - [ 0., 0., 3.95747775e-04, 9.39719141e-01, 0., 4.65271034e-04,
          4.24091890e-03, 3.40482146e-01, 0., 0., 5.34794299e-06,
          9.58351418e-03, 0., 0., 0., 2.19800463e-03, 0., 0., 0.,
          7.54059933e-04, 0., 0., 0., 0., 0., 0., 0., 9.94717353e-04, 0.,
          0., 0., 0., 0., 0., 0., 4.05908888e-03, 0., 0., 0., 0., 0., 0.,
          0., 6.31057250e-04, 0., 0., 0., 0., 0., 0., 0., 2.48679356e-03,
          0., 0., 0., 0., 0., 0., 0., 2.93281190e-02, 0., 5.34794299e-06,
          5.34794299e-06, 5.34794299e-06 ]
      - [ 0., 5.37071028e-04, 2.54448410e-03, 9.67797637e-01, 0.,
          5.01853297e-04, 1.01251099e-02, 2.47545734e-01, 0.,
          1.98144000e-02, 1.89647712e-02, 1.17231170e-02, 4.40222175e-05,
          3.18148583e-02, 5.46315731e-03, 2.64133305e-05, 0.,
          1.36468880e-04, 1.32066652e-05, 7.52779946e-04, 0.,
          8.80444350e-06, 0., 0., 0., 0., 0., 5.54679951e-04, 0., 0., 0.,
          0., 0., 4.40222175e-06, 0., 4.23493749e-03, 0., 0., 0., 0., 0.,
          0., 0., 2.94948858e-03, 0., 0., 0., 0., 0., 0., 0.,
          4.38021077e-03, 0., 0., 0., 0., 0., 0., 0., 9.77293239e-04, 0.,
          0., 0., 0. ]
      - [ 0., 9.08766378e-06, 2.72629914e-05, 9.98347998e-01, 0.,
          9.08766378e-06, 0., 0., 1.77209440e-04, 2.00382993e-03,
          1.18866647e-02, 2.04199813e-02, 7.76995264e-04, 2.97939051e-02,
          7.67907593e-03, 2.27191595e-05, 4.63470846e-04, 2.62633478e-03,
          4.35299100e-03, 3.89860780e-03, 1.86297111e-03, 4.15806063e-02,
          1.16322096e-03, 0., 3.18068232e-05, 4.54383189e-06,
          1.36314957e-05, 6.49767986e-04, 0., 0., 0., 0., 1.81753276e-05,
          0., 4.54383189e-06, 1.39495637e-03, 0., 0., 0., 0., 0., 0., 0.,
          1.65849866e-03, 0., 0., 0., 0., 0., 0., 0., 3.37606715e-03, 0.,
          0., 0., 0., 0., 0., 0., 3.22612061e-04, 0., 0., 0., 0. ]
      - [ 0., 3.18999053e-04, 4.61910618e-03, 9.42131817e-01, 0.,
          8.76184029e-04, 6.11202186e-03, 3.32431048e-01, 4.25332064e-06,
          7.40077812e-04, 5.57610346e-03, 1.94504354e-02, 1.27599615e-05,
          1.06971012e-02, 3.26782614e-02, 7.48584454e-04, 0.,
          6.80531302e-05, 4.72969236e-03, 1.33256540e-02, 0.,
          6.16731471e-04, 6.03971537e-04, 0., 0., 0., 2.12666037e-05,
          6.97544601e-04, 0., 0., 0., 0., 0., 0., 4.25332064e-06,
          3.75142880e-03, 0., 0., 0., 0., 0., 0., 0., 1.31427613e-03, 0.,
          0., 0., 0., 0., 0., 0., 2.76891165e-03, 0., 0., 0., 0., 0., 0.,
          0., 5.14651823e-04, 0., 0., 0., 0. ]
      - [ 0., 0., 4.10318462e-05, 9.93365586e-01, 1.53869423e-05,
          8.20636924e-05, 9.23216576e-05, 0., 2.91326107e-03,
          5.03153028e-03, 2.18391996e-02, 1.60280652e-02, 2.21059076e-03,
          7.57088885e-02, 6.43840954e-02, 9.79635282e-04, 8.87313683e-04,
          4.60582459e-03, 1.40482783e-02, 6.89335028e-03, 6.56509539e-04,
          0., 0., 0., 7.69347098e-05, 5.12898077e-06, 1.81053020e-03,
          3.89135778e-02, 0., 0., 0., 0., 1.53869423e-05, 0., 0.,
          2.80606542e-02, 4.10318462e-05, 0., 0., 0., 0., 0., 0.,
          6.77025469e-04, 0., 0., 0., 0., 0., 0., 0., 1.17966556e-03, 0.,
          0., 0., 0., 0., 0., 0., 1.23095539e-04, 0., 0., 0., 0. ]
      - [ 0., 1.41103783e-05, 3.66869848e-04, 9.35627460e-01,
          1.58741750e-04, 1.46395178e-03, 3.19600059e-03, 3.52639526e-01,
          0., 0., 1.41103783e-05, 1.39375264e-02, 1.86962512e-04,
          4.72697662e-04, 3.17483500e-05, 4.39185509e-03, 0., 0., 0.,
          6.84353348e-04, 0., 0., 0., 0., 0., 0., 0., 6.56132586e-04, 0.,
          0., 0., 0., 0., 0., 0., 3.63342231e-03, 0., 0., 0., 0., 0., 0.,
          0., 5.60887565e-04, 0., 0., 0., 0., 0., 0., 0., 2.21885694e-03,
          0., 0., 0., 0., 0., 0., 0., 9.84198879e-04, 0., 0., 0., 0. ]
      - [ 0., 0., 2.13173311e-02, 9.82691109e-01, 1.59343728e-03,
          4.50963154e-03, 5.89469634e-02, 1.73454836e-01, 0., 0.,
          1.94072491e-04, 1.28751770e-02, 0., 0., 0., 9.66276694e-03, 0.,
          0., 0., 9.44826577e-04, 0., 0., 0., 0., 0., 0., 0.,
          9.90791130e-04, 0., 0., 0., 0., 0., 0., 0., 3.07451678e-03, 0.,
          0., 0., 0., 0., 0., 0., 2.32376275e-03, 0., 0., 0., 0., 0., 0.,
          0., 1.76708109e-03, 0., 0., 0., 0., 0., 0., 0., 6.84360857e-04,
          2.09393998e-04, 0., 0., 0. ]
      - [ 0., 0., 6.39614518e-05, 9.97145355e-01, 0., 0., 0., 0.,
          2.55845807e-04, 7.80329714e-03, 1.57390852e-02, 9.28811636e-03,
          4.56867529e-05, 6.28969520e-02, 3.63757908e-02, 1.82747008e-05,
          0., 1.37060255e-04, 2.34373030e-03, 4.00672806e-03, 0., 0., 0.,
          0., 0., 0., 1.82747008e-05, 1.10105076e-03, 0., 0., 0., 0., 0.,
          0., 0., 1.48025074e-03, 0., 0., 0., 0., 0., 0., 0.,
          7.44694029e-04, 0., 0., 0., 0., 0., 0., 0., 1.16044353e-03, 0.,
          0., 0., 0., 0., 0., 0., 1.55334958e-04, 0., 0., 0., 0. ]
      - [ 0., 4.73260479e-06, 9.46520959e-06, 9.96809602e-01,
          4.73260479e-06, 0., 0., 0., 9.46520959e-06, 7.76147179e-04,
          4.79886122e-03, 1.03360089e-02, 3.26549722e-04, 6.75342698e-03,
          6.54046005e-03, 6.24703825e-04, 4.73260479e-05, 3.26549722e-04,
          2.51301322e-02, 1.49408337e-02, 1.32512930e-03, 5.04211709e-02,
          5.21958992e-02, 1.54756173e-03, 4.73260479e-06, 0.,
          9.46520959e-06, 7.85612385e-04, 0., 1.41978144e-05, 0., 0., 0.,
          0., 0., 1.61855086e-03, 0., 0., 0., 0., 0., 0., 0.,
          1.51916617e-03, 0., 0., 0., 0., 4.73260479e-06, 0., 0.,
          4.45338106e-03, 0., 0., 0., 0., 0., 0., 0., 3.73875780e-04, 0.,
          0., 0., 0. ]
      - [ 0., 0., 1.09574466e-04, 9.40516531e-01, 0., 3.88812623e-05,
          4.45367186e-04, 3.38065505e-01, 0., 3.53466021e-06,
          1.83802331e-04, 3.34131420e-02, 0., 6.85724081e-04,
          3.00092646e-03, 1.24066579e-03, 0., 0., 0., 3.92347283e-04, 0.,
          0., 0., 0., 0., 0., 0., 4.06485924e-04, 0., 0., 0., 0., 0., 0.,
          0., 3.20947147e-03, 0., 0., 0., 0., 0., 0., 0., 6.07961556e-04,
          0., 0., 0., 0., 0., 0., 0., 1.28308171e-03, 0., 0., 0., 0., 0.,
          0., 0., 2.82772817e-04, 0., 0., 0., 0. ]
      - [ 0., 5.02975963e-05, 2.51487982e-05, 9.95221794e-01,
          4.61061281e-05, 2.72445322e-04, 7.96378590e-05, 2.93402645e-05,
          3.14359990e-04, 4.77408012e-03, 1.05541125e-02, 3.62226516e-02,
          1.67365260e-02, 8.62813368e-02, 1.86520256e-02, 2.88372883e-03,
          0., 5.02975963e-05, 5.86805290e-05, 3.64657579e-04,
          4.90401580e-04, 6.70634618e-05, 0., 0., 0., 0., 0.,
          2.64062372e-04, 0., 0., 0., 0., 0., 0., 0., 7.79612747e-04, 0.,
          0., 0., 0., 0., 0., 0., 9.01165244e-04, 0., 0., 0., 0., 0., 0.,
          0., 2.10830756e-03, 0., 0., 0., 0., 0., 1.25743991e-05, 0.,
          1.76041591e-04, 0., 0., 0., 0. ]
      - [ 0., 0., 5.04842365e-06, 9.59957778e-01, 0., 5.04842365e-06,
          8.88522540e-04, 2.80000716e-01, 0., 0., 0., 5.22511825e-03, 0.,
          0., 5.04842365e-06, 1.36812276e-03, 0., 0., 0., 6.56295102e-04,
          0., 0., 0., 0., 0., 0., 0., 3.88728629e-04, 0., 0., 0., 0., 0.,
          0., 0., 3.75602720e-03, 0., 0., 0., 0., 0., 0., 0.,
          5.30084479e-04, 0., 0., 0., 0., 0., 0., 0., 2.24150019e-03, 0.,
          0., 0., 0., 0., 0., 0., 5.54316910e-03, 0., 0., 0., 0. ]
      - [ 0., 3.37398342e-05, 1.44599289e-05, 9.94645476e-01,
          9.63995262e-06, 9.63995262e-06, 0., 0., 1.59059220e-03,
          4.24157921e-03, 3.86513919e-02, 1.78194530e-02, 2.69918679e-03,
          8.74440074e-02, 3.04815304e-02, 5.78397157e-05, 2.60278728e-04,
          4.28977888e-04, 9.01335559e-04, 3.23902396e-03, 6.12136966e-04,
          6.07317023e-04, 3.37398342e-05, 0., 7.71196210e-05, 0., 0.,
          6.69976696e-04, 0., 0., 0., 0., 0., 0., 0., 1.03147491e-03, 0.,
          0., 0., 0., 0., 0., 0., 1.57757830e-02, 0., 0., 0., 0., 0., 0.,
          0., 1.56649225e-03, 0., 0., 0., 0., 0., 0., 4.81997631e-06,
          6.21776970e-04, 0., 0., 0., 0. ]
      - [ 0., 0., 1.24835875e-02, 9.22099829e-01, 0., 0., 2.82163266e-03,
          3.53650749e-01, 0., 0., 2.87049217e-04, 1.38418794e-01, 0.,
          3.17586382e-04, 1.32531230e-03, 7.23425075e-02, 0., 0.,
          1.22148604e-05, 2.11317092e-03, 6.10743018e-06, 1.89330342e-04,
          1.71008040e-04, 0., 0., 0., 6.10743018e-06, 8.20838660e-03, 0.,
          0., 0., 0., 0., 0., 6.10743018e-06, 3.73163982e-03, 0., 0., 0.,
          0., 0., 0., 6.10743018e-06, 1.60014676e-03, 0., 0., 0., 0., 0.,
          0., 2.44297207e-05, 3.81103647e-03, 0., 0., 0., 0., 0., 0.,
          2.62619491e-04, 1.10544486e-03, 0., 0., 0., 0. ]
      - [ 0., 3.66370223e-04, 3.20573943e-03, 6.87402129e-01, 0.,
          9.99191543e-05, 1.63201278e-03, 3.52756232e-01, 0.,
          2.16491491e-04, 2.25650752e-03, 1.52518257e-01, 0.,
          2.08164900e-04, 3.49717040e-04, 4.53258246e-01, 0., 0.,
          3.91350011e-04, 3.40557774e-03, 0., 2.49797886e-05,
          5.82861721e-05, 0., 0., 0., 0., 2.92205244e-01, 0., 0., 0., 0.,
          0., 0., 0., 2.98133761e-01, 0., 0., 0., 0., 0., 0., 0.,
          3.14745330e-03, 0., 0., 0., 0., 0., 0., 0., 5.33734774e-03, 0.,
          0., 0., 0., 0., 0., 0., 4.99595772e-04, 0., 0., 0., 0. ]
      - [ 0., 0., 7.67141682e-05, 9.87178385e-01, 0., 0., 5.11427788e-06,
          2.04571115e-05, 3.57999452e-05, 7.77370238e-04, 1.01109277e-02,
          7.82791376e-02, 1.02285558e-05, 2.04571115e-05, 8.44571814e-02,
          1.10018343e-01, 0., 2.04571115e-05, 1.53428336e-05,
          5.42113441e-04, 0., 0., 0., 0., 0., 0., 0., 1.43199781e-04, 0.,
          0., 0., 0., 0., 0., 0., 6.08599046e-04, 0., 0., 0., 0., 0., 0.,
          0., 1.87182566e-03, 0., 0., 0., 0., 0., 0., 0., 2.68499600e-03,
          0., 0., 0., 0., 0., 0., 5.11427788e-06, 1.32971225e-04, 0., 0.,
          0., 0. ]
      - [ 1.52237826e-05, 2.28356745e-04, 2.70222151e-03, 8.53917181e-01,
          0., 1.14178372e-04, 2.58804299e-04, 2.74028076e-04,
          6.08951304e-05, 3.57758882e-03, 8.84501729e-03, 7.78011382e-02,
          2.86968309e-03, 1.51400520e-02, 8.70343670e-02, 3.67563009e-01,
          3.80594574e-05, 0., 3.04475652e-05, 5.02384850e-04,
          9.43874533e-04, 7.61189131e-06, 0., 0., 1.52237826e-05, 0., 0.,
          2.51192425e-04, 1.52237826e-05, 0., 0., 0., 0., 0., 0.,
          1.23312639e-03, 7.61189131e-06, 0., 0., 0., 0., 0.,
          3.80594574e-05, 4.37683752e-03, 0., 0., 0., 0., 0.,
          1.52237826e-05, 1.52237826e-05, 1.65634751e-01, 0., 0., 0., 0.,
          0., 1.52237826e-05, 3.04475652e-05, 3.07086527e-01, 0., 0., 0.,
          0. ]
      - [ 0., 0., 1.12092421e-04, 9.38841283e-01, 0., 0., 1.96161738e-04,
          3.30689460e-01, 0., 0., 0., 2.44921935e-03, 0., 0., 0.,
          2.84714741e-03, 0., 0., 0., 4.93206666e-04, 0., 0., 0., 0., 0.,
          0., 0., 1.28906278e-03, 0., 0., 0., 0., 0., 0., 0.,
          1.54967774e-02, 0., 0., 0., 0., 0., 0., 0., 9.42248926e-02, 0.,
          0., 0., 0., 0., 0., 0., 4.81997430e-03, 0., 0., 0., 0., 0., 0.,
          5.60462104e-06, 7.98658468e-03, 0., 0., 0., 0. ]
      - [ 1.20682516e-05, 1.20682518e-04, 1.15050666e-03, 9.36878502e-01,
          9.25232598e-05, 1.17464317e-03, 1.66944147e-03, 3.42653871e-01,
          1.81023774e-04, 4.65834513e-03, 2.60271970e-03, 9.48966853e-03,
          7.56277121e-04, 1.63725950e-02, 8.04550131e-04, 2.72742496e-03,
          1.60910022e-05, 4.73075453e-03, 3.03717656e-03, 3.77736287e-03,
          1.89069280e-04, 6.55708313e-02, 5.29796258e-03, 4.02275055e-06,
          4.02275055e-06, 0., 0., 1.48841774e-03, 0., 4.02275055e-06, 0.,
          0., 0., 0., 4.02275055e-06, 5.63587341e-03, 0., 0., 0., 0.,
          4.02275055e-06, 0., 4.02275055e-06, 1.99930696e-03, 0., 0., 0.,
          0., 0., 0., 0., 5.63587341e-03, 0., 0., 0., 0., 0.,
          4.02275055e-06, 2.01137518e-05, 1.75391929e-03, 0.,
          4.02275055e-06, 0., 0. ]
      - [ 0., 4.13042881e-06, 1.03260716e-03, 9.24988866e-01,
          8.26085761e-06, 5.86520880e-04, 5.39847044e-03, 3.64353389e-01,
          0., 2.35847477e-03, 1.99375805e-02, 1.17634609e-02,
          1.10695488e-03, 7.76520604e-03, 7.41411978e-03, 1.09456363e-03,
          0., 5.06390585e-03, 8.74329135e-02, 2.84586544e-03,
          8.67390045e-05, 3.38199511e-02, 4.32786345e-02, 0., 0., 0.,
          8.26085761e-06, 1.01195509e-03, 0., 0., 0., 0., 0., 0., 0.,
          3.77108157e-03, 0., 0., 0., 0., 0., 0., 0., 1.65630190e-03, 0.,
          0., 0., 0., 0., 0., 0., 5.94781758e-03, 0., 0., 0., 0., 0., 0.,
          0., 1.42871533e-02, 0., 4.13042881e-06, 0., 0. ]
      - [ 0., 5.27998200e-05, 8.76627862e-02, 8.49488795e-01,
          3.77141587e-05, 7.54283174e-05, 4.14780304e-02, 2.08483860e-01,
          0., 0., 2.15423275e-02, 1.98527332e-02, 0., 0., 0., 0., 0., 0.,
          0., 1.02582504e-03, 0., 0., 0., 0., 0., 0., 0., 4.22911465e-01,
          0., 0., 0., 0., 0., 0., 0., 2.13371620e-01, 0., 0., 0., 0., 0.,
          0., 0., 8.44797119e-04, 0., 0., 0., 0., 0., 0., 0.,
          5.80798020e-04, 0., 0., 0., 0., 0., 0., 0., 1.60058886e-02, 0.,
          0., 0., 0. ]
      - [ 0., 8.17395412e-05, 8.75702873e-03, 9.40097332e-01, 0.,
          1.84186420e-03, 8.37012846e-03, 3.38962972e-01, 0.,
          5.44930263e-05, 3.76001874e-04, 3.25323362e-03, 0.,
          3.05160938e-04, 8.06496770e-04, 3.81451173e-05, 0., 0.,
          5.44930253e-06, 5.44930226e-04, 0., 0., 0., 0., 0., 0., 0.,
          7.62902375e-04, 0., 0., 0., 0., 0., 0., 0., 4.35944181e-03, 0.,
          0., 0., 0., 0., 0., 0., 9.33465548e-03, 0., 0., 0., 0., 0., 0.,
          0., 3.81996110e-03, 0., 0., 0., 0., 0., 0., 1.08986051e-05,
          3.22162770e-02, 0., 0., 0., 0. ]
      - [ 0., 0., 0., 9.94172633e-01, 0., 0., 0., 0., 0., 1.99156166e-05,
          2.93755351e-04, 3.53203453e-02, 0., 1.19493699e-04,
          3.51958722e-02, 4.32119109e-02, 0., 8.76287115e-04,
          1.01121543e-02, 3.35578136e-02, 1.69282735e-04, 8.02101474e-03,
          7.39516616e-02, 2.21013557e-02, 0., 0., 1.99156166e-05,
          8.21519177e-04, 4.97890414e-06, 1.49367124e-05, 0., 0., 0., 0.,
          4.97890414e-06, 1.68286962e-03, 0., 0., 0., 0., 0., 0., 0.,
          1.17004244e-03, 0., 0., 0., 0., 0., 0., 0., 3.36573925e-03, 0.,
          0., 0., 0., 0., 0., 0., 3.33586591e-04, 0., 0., 0., 0. ]
      - [ 0., 0., 1.48925501e-05, 9.92871463e-01, 0., 0., 0., 0., 0.,
          9.92836722e-05, 2.27856031e-03, 2.14303806e-02, 9.43194900e-05,
          5.55988576e-04, 5.79022355e-02, 1.36465402e-02, 2.23388255e-04,
          1.71760749e-03, 1.02808243e-02, 8.94049462e-03, 3.92170507e-04,
          3.58612612e-02, 9.32124704e-02, 2.07502861e-03, 0., 0., 0.,
          7.74412649e-04, 0., 0., 0., 0., 0., 0., 4.96418352e-06,
          1.96581660e-03, 0., 0., 0., 0., 0., 0., 0., 1.59350294e-03, 0.,
          0., 0., 0., 0., 0., 0., 5.25210612e-03, 0., 0., 0., 0., 0., 0.,
          0., 5.01382514e-04, 0., 0., 0., 0. ]
      - [ 0., 2.72188481e-05, 1.36094241e-05, 9.97774899e-01, 0., 0., 0.,
          0., 4.17355652e-04, 9.73527413e-03, 1.17993699e-02,
          9.95756127e-03, 8.21101887e-04, 3.37876640e-02, 5.43877929e-02,
          2.18658079e-03, 2.26823722e-05, 2.99407315e-04, 7.80273636e-04,
          1.76015217e-03, 0., 0., 0., 0., 0., 0., 0., 3.17553204e-04, 0.,
          0., 0., 0., 0., 0., 0., 1.10236334e-03, 0., 0., 0., 0., 0., 0.,
          0., 9.02758446e-04, 0., 0., 0., 0., 0., 0., 0., 9.98024363e-04,
          0., 0., 0., 0., 0., 0., 0., 9.52659684e-05, 0., 0., 0., 0. ]
      - [ 0., 8.28985707e-04, 1.52816968e-02, 9.67371762e-01,
          4.24309773e-03, 3.13923806e-02, 1.18343160e-01, 1.59852430e-01,
          0., 0., 2.18154128e-05, 1.52909681e-01, 0., 4.36308255e-05,
          1.25438630e-04, 1.36346335e-03, 0., 0., 0., 6.98093208e-04, 0.,
          0., 0., 0., 0., 0., 0., 4.30854416e-04, 0., 0., 0., 0., 0., 0.,
          0., 3.03779612e-03, 0., 0., 0., 0., 0., 0., 0., 8.45347240e-04,
          0., 0., 0., 0., 0., 0., 0., 1.54344051e-03, 0., 0., 0., 0., 0.,
          0., 0., 2.67238793e-04, 0., 0., 0., 0. ]
      - [ 0., 1.80529285e-04, 2.78112682e-04, 9.93081868e-01, 0.,
          4.87916986e-06, 0., 0., 9.75833973e-06, 5.73692806e-02,
          2.90652141e-02, 9.17283967e-02, 1.21979247e-04, 3.45445238e-02,
          4.38149460e-03, 4.87916986e-06, 0., 2.43958493e-04,
          4.39125288e-05, 2.92750192e-04, 0., 7.46513018e-04,
          9.75833973e-06, 0., 0., 0., 0., 1.75650115e-04, 0., 0., 0., 0.,
          0., 0., 0., 2.87871022e-04, 0., 0., 0., 0., 0., 0., 0.,
          4.94747842e-03, 0., 0., 0., 0., 0., 0., 4.87916986e-06,
          5.75742044e-04, 0., 0., 0., 0., 0., 0., 0., 2.09804304e-04, 0.,
          0., 0., 0. ]
      - [ 0., 0., 7.26700411e-04, 9.56879854e-01, 3.84497571e-06,
          1.92248786e-04, 1.71101419e-03, 2.90049583e-01, 0.,
          3.84497571e-06, 4.22947342e-05, 8.78192484e-03, 3.84497571e-06,
          5.76746352e-05, 5.26761694e-04, 1.21116731e-03, 0., 0.,
          7.68995142e-06, 6.42110943e-04, 0., 0., 0., 0., 0., 0., 0.,
          2.03014724e-03, 0., 0., 0., 0., 0., 0., 0., 6.60951342e-03, 0.,
          0., 0., 0., 0., 0., 0., 2.69148289e-03, 0., 0., 0., 0., 0., 0.,
          0., 2.14549643e-03, 0., 0., 0., 0., 0., 0., 1.53799028e-05,
          1.04737142e-02, 0., 0., 0., 0. ]
      - [ 0., 0., 0., 9.96425152e-01, 0., 0., 2.66049865e-05,
          7.60142484e-06, 1.17822085e-04, 3.61067679e-04, 4.71288338e-04,
          8.45278427e-03, 0., 4.74328920e-03, 6.52126223e-02,
          3.87368612e-02, 1.14021372e-04, 1.98777253e-03, 5.68206515e-03,
          1.02619231e-02, 6.84128245e-05, 3.02878767e-02, 1.48835899e-02,
          3.04056994e-05, 0., 1.52028497e-05, 3.00256273e-04,
          1.92316051e-03, 0., 0., 0., 0., 0., 0., 0., 1.06800022e-03, 0.,
          0., 0., 0., 0., 0., 0., 7.52541062e-04, 0., 0., 0., 0., 0., 0.,
          0., 1.84714620e-03, 0., 0., 0., 0., 0., 0., 0., 1.74832778e-04,
          0., 0., 0., 0. ]
      - [ 0., 1.35869152e-04, 8.71160999e-04, 9.28505778e-01, 0.,
          4.00813995e-03, 7.40486849e-03, 3.58902365e-01, 0., 0.,
          2.19788330e-04, 4.14720587e-02, 0., 1.19884544e-05,
          2.96674278e-02, 6.85539767e-02, 0., 0., 0., 1.71434903e-03, 0.,
          0., 0., 0., 0., 0., 3.99615146e-06, 7.91237981e-04, 0., 0., 0.,
          0., 0., 0., 0., 3.88425915e-03, 0., 0., 0., 0., 0., 0., 0.,
          1.33071840e-03, 0., 0., 0., 0., 0., 0., 0., 8.45985301e-03, 0.,
          3.99615146e-06, 0., 0., 0., 1.19884544e-05, 3.99615146e-06,
          4.00294475e-02, 1.67838356e-04, 5.79441956e-04, 0., 0. ]
      - [ 0., 0., 9.43299528e-06, 9.48067904e-01, 5.65979717e-05,
          2.49974371e-04, 3.04214098e-02, 3.16458136e-01, 0., 0.,
          1.41494929e-05, 7.10304547e-03, 0., 8.96134588e-05,
          3.30154842e-04, 5.51830221e-04, 0., 0., 0., 1.04234600e-03,
          9.43299528e-06, 0., 0., 0., 0., 0., 0., 1.01876352e-03, 0., 0.,
          0., 0., 0., 0., 0., 5.40038990e-03, 0., 0., 0., 0., 0., 0., 0.,
          7.68789090e-04, 0., 0., 0., 0., 0., 0., 0., 3.43832676e-03, 0.,
          0., 0., 0., 0., 0., 0., 1.18855736e-03, 9.43299528e-06,
          1.41494929e-05, 0., 0. ]
      - [ 0., 5.65333867e-05, 2.65330030e-03, 9.38133836e-01, 0.,
          1.01760095e-04, 5.44604938e-03, 3.41725469e-01, 0.,
          2.80405604e-03, 3.64263467e-02, 1.28632300e-02, 4.14578171e-05,
          3.60343792e-02, 1.49700409e-02, 3.91587941e-03, 0.,
          6.78400611e-05, 1.01383205e-03, 1.05152093e-03, 0.,
          1.05528990e-04, 3.39200305e-05, 0., 0., 0., 0., 9.04534187e-04,
          0., 0., 0., 0., 0., 0., 0., 4.71488433e-03, 0., 0., 0., 0., 0.,
          0., 0., 1.79776165e-03, 0., 0., 0., 0., 0., 0., 0.,
          4.50382661e-03, 0., 0., 0., 0., 0., 0., 0., 2.25002877e-03, 0.,
          0., 0., 0. ]
      - [ 0., 0., 4.32060870e-06, 9.95628119e-01, 0., 0., 6.04885208e-05,
          7.34503483e-05, 0., 4.75266970e-05, 1.47332752e-03,
          1.38518717e-02, 0., 6.39450096e-04, 5.96676068e-03,
          5.76239564e-02, 0., 6.16594069e-02, 1.49795506e-02,
          2.13826932e-02, 1.08015214e-04, 9.90283489e-03, 9.76457552e-04,
          0., 4.32060870e-06, 2.22381726e-02, 2.09549512e-03,
          4.88228770e-03, 5.18473025e-05, 6.43770676e-04, 0., 0., 0.,
          2.67877738e-04, 1.51221306e-04, 5.51309669e-03, 0.,
          4.32060870e-06, 0., 0., 0., 4.32060870e-06, 4.32060870e-06,
          4.60144831e-03, 0., 0., 4.32060870e-06, 0., 0., 0., 0.,
          4.04408993e-03, 0., 0., 0., 0., 0., 0., 0., 6.69694331e-04, 0.,
          0., 0., 0. ]
      - [ 5.46734955e-05, 1.28873246e-04, 1.24577468e-03, 9.38486159e-01,
          8.12291924e-04, 3.31165176e-03, 8.31427705e-03, 3.32469523e-01,
          3.12419979e-05, 5.11587714e-04, 8.62669665e-03, 1.96941737e-02,
          6.03751605e-03, 2.05377080e-02, 1.16064027e-02, 8.64583254e-02,
          4.29577485e-05, 2.73367477e-05, 2.57746491e-04, 2.23770807e-03,
          9.60691425e-04, 4.66286810e-03, 1.95262488e-04, 0.,
          3.90524974e-06, 0., 0., 9.76312440e-04, 0., 0., 0., 0., 0., 0.,
          0., 4.80345730e-03, 0., 0., 0., 0., 0., 0., 0., 2.14398210e-03,
          0., 0., 0., 0., 3.90524974e-06, 0., 0., 6.04923163e-03, 0., 0.,
          0., 0., 1.17157488e-05, 3.90524974e-06, 0., 1.26920617e-03,
          3.43661988e-04, 3.63188214e-04, 3.90524974e-06, 0. ]
      - [ 0., 0., 8.40447959e-04, 9.62576210e-01, 1.01258793e-05,
          6.48056273e-04, 3.28078493e-03, 2.70619184e-01, 0.,
          1.51888189e-05, 4.55664558e-05, 4.36931709e-03, 5.06293964e-06,
          6.42993313e-04, 8.05007410e-04, 1.51888191e-04, 0., 0., 0.,
          5.97426901e-04, 0., 1.01258793e-05, 0., 0., 0., 0., 0.,
          5.56923333e-04, 0., 0., 0., 0., 0., 0., 0., 3.91871529e-03, 0.,
          0., 0., 0., 0., 0., 0., 5.06293960e-04, 0., 0., 0., 0., 0., 0.,
          0., 1.93910592e-03, 0., 0., 0., 0., 0., 0., 0., 1.26573490e-02,
          0., 0., 0., 0. ]
      - [ 0., 0., 1.25661056e-04, 9.90295112e-01, 0., 0., 0., 0., 0., 0.,
          1.29397819e-02, 4.62531894e-02, 0., 0., 2.64582671e-02,
          1.27684861e-01, 0., 0., 1.38888543e-04, 5.32406091e-04, 0., 0.,
          9.92060995e-06, 0., 0., 0., 0., 8.26717514e-05, 0., 0., 0., 0.,
          0., 0., 0., 5.85315982e-04, 0., 0., 0., 0., 0., 0., 0.,
          1.37565797e-03, 0., 0., 0., 0., 0., 0., 0., 1.65012816e-03, 0.,
          0., 0., 0., 0., 0., 0., 7.93648796e-05, 0., 0., 0., 0. ]
      - [ 0., 3.47604509e-05, 6.60448568e-04, 9.96820509e-01, 0., 0., 0.,
          4.96577877e-06, 5.80996100e-04, 1.01848124e-02, 2.32398454e-02,
          3.82017344e-02, 1.34076027e-03, 3.37970890e-02, 3.32905799e-02,
          1.98333208e-02, 3.97262302e-05, 2.91342232e-02, 2.45408788e-02,
          3.96765722e-03, 8.19353503e-04, 9.74782370e-03, 3.50583973e-03,
          0., 0., 4.46920094e-05, 8.93840188e-05, 1.41524698e-03, 0., 0.,
          0., 0., 0., 4.96577877e-06, 3.47604509e-05, 2.19487422e-03, 0.,
          0., 0., 0., 0., 0., 2.48288943e-05, 2.45806039e-03, 0., 0., 0.,
          0., 0., 4.96577877e-06, 4.96577877e-06, 3.36679793e-03, 0., 0.,
          0., 0., 0., 9.93155754e-06, 1.98631151e-05, 5.16441010e-04, 0.,
          0., 0., 0. ]
      - [ 0., 1.76837886e-04, 2.00079428e-03, 8.91328633e-01, 0.,
          3.58728284e-04, 1.63196097e-03, 3.62214506e-01, 0.,
          2.52625556e-04, 2.47067795e-03, 3.77624668e-02, 0.,
          1.00544970e-02, 2.47421451e-02, 2.59092748e-01, 0.,
          5.05251091e-06, 2.62477938e-02, 4.20419425e-02, 0.,
          8.69031879e-04, 4.97722849e-02, 1.26312778e-04, 0., 0., 0.,
          1.42480806e-03, 0., 0., 0., 0., 0., 0., 0., 5.47692180e-03, 0.,
          0., 0., 0., 0., 0., 0., 2.48078280e-03, 0., 0., 0., 0., 0., 0.,
          0., 8.59432109e-03, 0., 0., 0., 0., 0., 0., 0., 2.47067795e-03,
          0., 0., 0., 0. ]
      - [ 0., 0., 3.47415134e-02, 9.80624497e-01, 0., 6.35267585e-04,
          4.92916852e-02, 1.86204553e-01, 0., 0., 0., 3.98948044e-03, 0.,
          0., 0., 1.47382088e-04, 0., 0., 0., 6.30185474e-04, 0., 0., 0.,
          0., 0., 0., 0., 6.40349754e-04, 0., 0., 0., 0., 0., 0., 0.,
          4.72130906e-03, 0., 0., 0., 0., 0., 0., 0., 6.20021194e-04, 0.,
          0., 0., 0., 0., 0., 0., 1.90072064e-03, 0., 0., 0., 0., 0., 0.,
          1.01642818e-05, 4.83311620e-03, 0., 0., 0., 0. ]
      - [ 0., 1.43575362e-05, 1.24431972e-04, 9.72689569e-01, 0.,
          2.15363034e-04, 1.03374256e-03, 2.31007963e-01, 0.,
          4.73798689e-04, 2.75664683e-03, 4.64227004e-03, 9.76312440e-04,
          1.89806614e-02, 5.61379641e-03, 7.56163558e-04, 4.78584525e-06,
          6.17374026e-04, 1.15338876e-03, 1.14381697e-03, 7.17876756e-05,
          1.70854677e-03, 2.87150724e-05, 0., 0., 0., 0., 7.46591832e-04,
          0., 0., 0., 0., 0., 0., 0., 3.84303369e-03, 0., 0., 0., 0., 0.,
          0., 0., 1.36875175e-03, 0., 0., 0., 0., 0., 0., 0.,
          1.68461748e-03, 0., 0., 0., 0., 0., 0., 0., 7.78657012e-03, 0.,
          0., 0., 0. ]
      - [ 9.58112360e-05, 1.62315508e-03, 2.64889887e-03, 9.75172400e-01,
          2.02894385e-04, 2.64889881e-04, 5.07235964e-05, 0.,
          4.95964056e-03, 5.73007539e-02, 2.43980493e-02, 3.01974472e-02,
          1.11253753e-01, 1.77369133e-01, 1.18580488e-02, 0.,
          1.95004046e-03, 4.79056180e-04, 7.32674162e-05, 8.67937051e-04,
          1.32501302e-02, 1.38080900e-03, 0., 0., 6.76314594e-05, 0., 0.,
          3.49429203e-04, 0., 0., 0., 0., 3.38157297e-05, 0.,
          1.69078648e-05, 1.50479993e-03, 5.63595495e-06, 0., 0., 0.,
          1.12719099e-05, 1.69078648e-05, 9.01752792e-05, 4.40168101e-03,
          5.63595495e-06, 0., 0., 0., 0., 0., 0., 5.65286260e-03, 0., 0.,
          0., 0., 0., 5.63595495e-06, 1.12719099e-05, 3.83244944e-04, 0.,
          1.69078648e-05, 0., 0. ]
      - [ 6.39911241e-06, 1.08784909e-04, 1.86214165e-03, 9.15815353e-01,
          4.03144077e-04, 5.31766238e-03, 1.03601627e-02, 3.52719069e-01,
          1.27982248e-05, 5.11928993e-05, 1.05585356e-03, 4.67967093e-02,
          3.83946754e-05, 3.13556520e-04, 2.43166272e-04, 1.81952357e-01,
          6.39911241e-06, 8.70279269e-04, 3.47663760e-02, 3.94825218e-03,
          1.25422608e-03, 8.67079757e-03, 4.92091756e-03, 0.,
          6.39911241e-06, 6.39911241e-06, 0., 1.31181802e-03,
          2.49565375e-04, 1.40780467e-04, 0., 0., 6.39911241e-06, 0., 0.,
          4.66495287e-03, 1.59977804e-04, 0., 0., 0., 6.39911241e-06,
          6.39911241e-06, 0., 2.46365834e-03, 7.35897920e-04, 0., 0., 0.,
          6.39911241e-06, 0., 0., 8.51081964e-03, 5.05529868e-04, 0., 0.,
          0., 1.27982248e-05, 6.39911241e-06, 0., 1.02385797e-03,
          2.02211947e-03, 5.75920101e-04, 0., 0. ]
      - [ 1.51740878e-05, 2.83249654e-04, 2.54418864e-03, 9.59159136e-01,
          1.87147089e-04, 7.68820464e-04, 3.58614279e-03, 2.82774180e-01,
          0., 0., 0., 2.52901460e-03, 0., 0., 0., 0., 0., 0., 0.,
          7.28356186e-04, 0., 0., 0., 0., 0., 0., 0., 1.43142231e-03, 0.,
          0., 0., 0., 0., 0., 0., 3.67212924e-03, 0., 0., 0., 0., 0., 0.,
          0., 3.33829928e-04, 0., 0., 0., 0., 0., 0., 0., 2.11425615e-03,
          0., 0., 0., 0., 0., 1.97263143e-04, 1.11276648e-04,
          2.31151935e-03, 6.06963513e-05, 1.11276648e-04, 0.,
          5.05802927e-05 ]
      - [ 0., 0., 2.31336362e-05, 1.25846989e-03, 0., 0., 0., 0.,
          1.85069093e-05, 3.25258938e-03, 2.26200707e-02, 2.37906314e-02,
          0., 1.22053064e-02, 5.17129302e-02, 3.70138185e-03,
          1.11041460e-04, 8.55944585e-04, 1.50831314e-02, 2.05889367e-03,
          0., 8.23557493e-04, 3.02125304e-03, 0., 3.23870918e-05,
          7.40276373e-05, 4.21032193e-04, 4.44165838e-04, 0., 0., 0., 0.,
          0., 1.48055275e-04, 6.89382374e-04, 3.04901320e-03, 0., 0., 0.,
          0., 0., 1.15668183e-04, 9.53105802e-04, 9.97855544e-01, 0., 0.,
          0., 0., 0., 0., 5.13566716e-04, 1.01973070e-02, 0., 0., 0., 0.,
          0., 0., 0., 2.45216535e-04, 0., 0., 0., 0. ]
      - [ 4.11023393e-06, 3.74031282e-04, 1.51256612e-03, 9.66924310e-01,
          1.19196782e-04, 2.83606147e-04, 2.26062868e-04, 2.05511697e-05,
          1.23307018e-05, 2.00990448e-03, 1.00001991e-02, 8.45886115e-03,
          5.13779232e-04, 3.05472594e-02, 1.71273444e-02, 6.82298851e-04,
          4.93228072e-05, 1.98935326e-02, 9.29241702e-02, 1.20840874e-02,
          1.18744662e-02, 2.25729942e-01, 5.78063317e-02, 3.69921036e-05,
          4.11023393e-06, 8.22046786e-05, 3.74031282e-04, 1.42625114e-03,
          9.86456143e-05, 0., 4.11023393e-06, 0., 4.11023393e-06,
          1.23307018e-05, 4.93228072e-05, 2.39626644e-03, 2.05511697e-05,
          0., 0., 0., 0., 0., 1.64409357e-05, 1.94414065e-03, 0., 0., 0.,
          0., 4.11023393e-06, 0., 0., 5.16245374e-03, 0., 0., 0., 0.,
          8.22046786e-06, 8.22046786e-06, 2.05511697e-05, 6.86409068e-04,
          8.22046786e-06, 0., 0., 0. ]
      - [ 0., 4.88949445e-05, 5.65008260e-04, 9.48491275e-01,
          3.80294005e-05, 6.03037653e-04, 6.54377341e-02, 3.09553891e-01,
          0., 0., 5.43277156e-06, 1.37340464e-02, 0., 6.51932569e-05,
          7.06260325e-04, 5.16656553e-03, 0., 0., 0., 7.55155226e-04, 0.,
          0., 0., 0., 0., 0., 0., 1.00506272e-03, 0., 0., 0., 0., 0., 0.,
          0., 5.32954885e-03, 0., 0., 0., 0., 0., 0., 0., 1.01049547e-03,
          0., 0., 0., 0., 0., 0., 0., 3.23249912e-03, 0., 0., 0., 0., 0.,
          1.62983142e-05, 0., 7.60588038e-04, 1.08655431e-05,
          5.43277156e-06, 0., 0. ]
      - [ 0., 0., 4.34941030e-05, 9.91941035e-01, 0., 0., 0., 0., 0.,
          1.59478383e-04, 9.53004137e-03, 4.25565653e-02, 0.,
          3.47952824e-04, 2.66328901e-02, 1.15554169e-01, 0.,
          5.79921398e-05, 7.40849599e-03, 3.20406561e-03, 0.,
          4.34941030e-05, 3.48436111e-03, 0., 0., 0., 4.83267831e-06,
          2.51299265e-04, 0., 0., 0., 0., 0., 0., 0., 8.11889942e-04, 0.,
          0., 0., 0., 0., 0., 1.44980349e-05, 1.45463622e-03, 0., 0., 0.,
          0., 0., 0., 0., 2.92377034e-03, 0., 0., 0., 0., 0., 0., 0.,
          2.75462662e-04, 0., 0., 0., 0. ]
      - [ 4.44796569e-06, 1.86814563e-04, 1.03637599e-03, 9.28334892e-01,
          3.11357580e-05, 5.64891670e-04, 2.44193315e-03, 3.02412748e-01,
          0., 1.77918628e-05, 4.89276252e-04, 1.55456401e-02,
          2.66877942e-05, 7.65050121e-04, 5.07735275e-02, 2.09370196e-01,
          0., 0., 4.44796569e-06, 1.41890103e-03, 0., 0., 1.77918628e-05,
          8.89593139e-06, 0., 4.44796569e-06, 4.44796569e-06,
          1.06306386e-03, 0., 0., 0., 0., 0., 4.44796569e-06, 0.,
          5.49768563e-03, 0., 0., 0., 0., 0., 0., 0., 2.20174296e-03, 0.,
          0., 0., 0., 0., 8.89593139e-06, 4.44796569e-06, 6.10260898e-03,
          0., 0., 0., 0., 4.44796569e-06, 1.06751177e-04, 6.67194836e-05,
          1.26767019e-03, 0., 4.00316931e-05, 2.22398285e-05, 0. ]
      - [ 0., 0., 1.03102170e-03, 9.70648468e-01, 0., 0., 0., 0., 0., 0.,
          1.19862612e-03, 3.82595398e-02, 0., 5.07892446e-06,
          8.11612140e-03, 2.37261951e-01, 0., 0., 1.32052039e-04,
          8.02470080e-04, 0., 0., 0., 0., 0., 0., 6.09470953e-05,
          2.08235899e-04, 0., 0., 0., 0., 0., 0., 4.57103197e-05,
          1.26973109e-03, 0., 0., 0., 0., 0., 0., 5.07892459e-04,
          2.36169994e-03, 0., 0., 0., 0., 0., 0., 8.12627914e-05,
          2.79848743e-03, 0., 0., 0., 0., 0., 0., 1.62525583e-04,
          1.26973115e-04, 0., 0., 0., 0. ]
      - [ 0., 2.70741497e-04, 4.87334706e-04, 9.97253776e-01, 0.,
          2.25617914e-05, 0., 0., 1.57932547e-04, 5.45995368e-04,
          1.19351875e-02, 9.89108998e-03, 5.86606584e-05, 5.89043275e-02,
          4.20551784e-02, 4.51235837e-06, 0., 0., 4.01599886e-04,
          3.65501037e-04, 0., 9.92718851e-05, 1.17321317e-04, 0., 0., 0.,
          0., 1.75981972e-04, 0., 0., 0., 0., 0., 0., 0., 5.59532433e-04,
          0., 0., 0., 0., 0., 0., 0., 1.69664680e-03, 0., 0., 0., 0., 0.,
          0., 0., 1.38529402e-03, 0., 0., 0., 0., 0., 9.02471675e-06,
          9.02471675e-06, 3.11352720e-04, 0., 0., 0., 0. ]
      - [ 0., 0., 0., 9.89382267e-01, 0., 0., 1.31881152e-05,
          1.45398965e-03, 0., 1.15396011e-04, 7.87989877e-04,
          4.26404737e-02, 0., 6.92376052e-05, 1.08884379e-01,
          8.62469748e-02, 0., 1.15396011e-04, 2.01118761e-04,
          1.19682145e-03, 0., 0., 0., 0., 0., 0., 0., 1.25287101e-04, 0.,
          0., 0., 0., 0., 0., 0., 4.08831576e-04, 0., 0., 0., 0., 0., 0.,
          0., 1.02867302e-03, 0., 0., 0., 0., 0., 0., 0., 2.14636582e-03,
          0., 0., 0., 0., 0., 0., 0., 6.59405778e-05, 0., 0., 0., 0. ]
      - [ 0., 3.75494915e-06, 9.38737285e-05, 9.54432964e-01, 0.,
          7.50989830e-06, 1.64241474e-02, 2.61641115e-01, 0., 0.,
          3.75494915e-06, 2.08549872e-02, 0., 0., 2.62846443e-05,
          1.40923247e-01, 0., 0., 0., 1.10020011e-03, 0., 0., 0., 0., 0.,
          0., 0., 9.19962535e-04, 0., 0., 0., 0., 0., 0., 0.,
          4.43459488e-03, 0., 0., 0., 0., 0., 0., 0., 9.95061477e-04, 0.,
          0., 0., 0., 0., 3.75494915e-06, 3.75494915e-06, 3.78498877e-03,
          0., 0., 0., 0., 0., 0., 3.75494915e-06, 7.32215063e-04, 0.,
          3.75494915e-06, 0., 0. ]
      - [ 5.99076157e-05, 7.48845167e-04, 9.84196551e-04, 9.25482750e-01,
          8.55823018e-05, 3.17082438e-03, 5.66982757e-03, 3.31836820e-01,
          7.27449587e-05, 9.62800928e-04, 5.96080767e-03, 5.01854643e-02,
          5.99076157e-05, 7.10333115e-04, 7.36007816e-04, 1.67304844e-01,
          7.27449587e-05, 2.14383681e-03, 1.42152207e-02, 8.58390518e-03,
          4.74981789e-04, 4.80673015e-02, 8.48548580e-03, 0.,
          4.70702689e-05, 8.13031875e-05, 2.56746916e-05, 1.25378079e-03,
          2.48616608e-03, 2.77714571e-03, 4.27911527e-06, 0., 0., 0., 0.,
          5.13921725e-03, 5.13493833e-05, 0., 0., 0., 0., 0., 0.,
          2.23797723e-03, 7.01774901e-04, 0., 0., 0., 0., 0., 0.,
          7.72380317e-03, 3.93678609e-04, 0., 0., 0., 0., 0., 0.,
          1.41210807e-03, 1.51052768e-03, 7.91636354e-04, 4.27911527e-06,
          0. ]
      - [ 0., 1.03047669e-05, 6.69809815e-05, 9.92472708e-01, 0.,
          1.54571499e-05, 1.03047669e-05, 0., 0., 1.49419124e-04,
          1.39629596e-03, 3.36450641e-03, 1.54571499e-05, 2.88533483e-04,
          1.05469292e-02, 1.19999014e-02, 0., 7.93467043e-04,
          1.17371297e-02, 6.50076196e-02, 0., 1.39114360e-04,
          5.10085970e-02, 7.67911226e-02, 0., 1.03047669e-05,
          1.03047665e-03, 4.25535366e-02, 0., 0., 0., 0., 0., 0., 0.,
          6.60535553e-03, 0., 0., 0., 0., 0., 0., 0., 5.46152645e-04, 0.,
          0., 0., 0., 0., 0., 0., 3.19447764e-03, 0., 0., 0., 0., 0., 0.,
          0., 4.68866900e-04, 0., 0., 0., 0. ]
      - [ 0., 4.16093317e-05, 2.18448986e-04, 9.80731964e-01,
          1.56034985e-05, 1.45632657e-04, 2.86064169e-04, 6.34542317e-04,
          0., 2.91265314e-04, 2.19489215e-03, 1.70390215e-02,
          3.12069969e-05, 6.22579642e-03, 6.42240047e-02, 1.82789788e-01,
          0., 8.94600642e-04, 7.92657770e-03, 1.07716154e-02,
          1.04023329e-05, 7.28163286e-04, 6.69390103e-03, 8.94600642e-04,
          0., 5.20116646e-06, 3.01667664e-04, 1.78400008e-03, 0., 0., 0.,
          0., 0., 0., 6.24139939e-05, 3.54199437e-03, 0., 0., 0., 0., 0.,
          0., 2.60058332e-05, 2.61618663e-03, 0., 0., 0., 0., 0., 0.,
          2.60058332e-05, 6.66269427e-03, 0., 0., 0., 0., 0.,
          3.12069969e-05, 4.16093317e-05, 8.16583110e-04, 5.20116646e-06,
          0., 0., 0. ]
      - [ 0., 0., 4.59730718e-03, 9.53402996e-01, 0., 1.32563640e-03,
          7.24857999e-03, 2.99201429e-01, 0., 0., 5.30254556e-06,
          3.62694124e-03, 0., 0., 6.52213115e-04, 3.71178176e-05, 0., 0.,
          0., 5.99187624e-04, 0., 0., 0., 0., 0., 0., 0., 1.01278618e-03,
          0., 0., 0., 0., 0., 0., 0., 4.40111291e-03, 0., 0., 0., 0., 0.,
          0., 0., 7.15843635e-04, 0., 0., 0., 0., 0., 0., 0.,
          3.58452089e-03, 0., 0., 0., 0., 0., 0., 0., 3.71231213e-02, 0.,
          0., 0., 0. ]
      - [ 0., 4.73298905e-06, 9.46597811e-06, 9.36327219e-01, 0.,
          2.27183482e-04, 2.03518532e-04, 3.50312173e-01, 0., 0., 0.,
          1.98406894e-02, 0., 1.51455650e-04, 1.65654623e-04,
          1.22253103e-02, 0., 0., 0., 8.18807108e-04, 0., 0., 0., 0., 0.,
          0., 0., 7.47812272e-04, 0., 0., 0., 0., 0., 0., 0.,
          4.40167962e-03, 0., 0., 0., 0., 0., 0., 0., 9.08733928e-04, 0.,
          0., 0., 0., 0., 0., 0., 2.80666258e-03, 0., 0., 0., 0., 0., 0.,
          0., 3.83372128e-04, 0., 0., 0., 0. ]
      - [ 4.53839493e-05, 1.36151852e-04, 4.99223417e-04, 9.92377818e-01,
          0., 0., 8.25162715e-06, 0., 2.31045560e-04, 7.34394824e-04,
          1.25012151e-03, 2.30302922e-02, 7.30269006e-04, 2.96646007e-03,
          8.09484627e-03, 3.39967036e-03, 2.14542306e-04, 3.25939269e-03,
          1.47002740e-02, 7.92032406e-02, 1.53480261e-03, 2.72922572e-02,
          8.27143118e-02, 1.71963908e-02, 0., 8.25162715e-06,
          2.84681143e-03, 1.00999912e-02, 0., 0., 2.28570076e-03,
          2.07115849e-03, 0., 0., 1.23774407e-05, 3.29239923e-03, 0., 0.,
          0., 0., 0., 1.65032543e-05, 1.48529289e-04, 1.85249024e-03, 0.,
          0., 0., 0., 0., 6.18872000e-05, 9.90195258e-05, 6.92724111e-03,
          0., 0., 0., 0., 4.12581358e-06, 5.36355765e-05, 7.42646444e-05,
          8.00407841e-04, 0., 0., 0., 0. ]
      - [ 0., 0., 4.57433134e-06, 9.35963094e-01, 0., 0., 9.14866268e-06,
          3.51702034e-01, 0., 0., 0., 8.80558789e-03, 0., 0., 0.,
          1.27166407e-02, 0., 0., 0., 1.05667056e-03, 0., 0., 0., 0., 0.,
          0., 0., 1.02922460e-03, 0., 0., 0., 0., 0., 0., 0.,
          5.00889262e-03, 0., 0., 0., 0., 0., 0., 0., 7.45615980e-04, 0.,
          0., 0., 0., 0., 0., 0., 3.23405233e-03, 0., 0., 0., 0., 0., 0.,
          0., 1.08411652e-03, 0., 0., 0., 0. ]
      - [ 0., 9.13985423e-06, 3.38174606e-04, 9.56394374e-01, 0.,
          9.00275656e-04, 1.96963851e-03, 2.91086078e-01, 0.,
          3.88900796e-03, 2.18259711e-02, 6.93257945e-03, 0.,
          6.62639446e-04, 2.74195627e-04, 2.10216647e-04, 0.,
          6.99198863e-04, 3.10755044e-04, 8.45436531e-04, 0.,
          4.56992711e-05, 0., 0., 0., 0., 4.56992711e-06, 6.94628921e-04,
          0., 0., 0., 0., 0., 0., 4.56992711e-06, 3.82045913e-03, 0., 0.,
          0., 0., 0., 0., 0., 1.23845029e-03, 0., 0., 0., 0., 0., 0., 0.,
          3.30862729e-03, 0., 0., 0., 0., 0., 0., 0., 2.24840408e-03, 0.,
          0., 0., 0. ]
      - [ 0., 0., 1.92716606e-02, 8.79748762e-01, 0., 0., 2.07705051e-03,
          2.05981657e-01, 0., 0., 4.49092004e-05, 2.78437044e-03, 0.,
          5.61365005e-06, 1.17886651e-04, 9.74529609e-03, 0., 0., 0.,
          3.14364413e-04, 0., 0., 0., 0., 0., 0., 0., 1.85250450e-04, 0.,
          0., 0., 0., 0., 0., 0., 1.29113952e-03, 0., 0., 0., 0., 0., 0.,
          0., 1.13957096e-03, 0., 0., 0., 0., 0., 0., 0., 5.38910413e-03,
          0., 0., 0., 0., 0., 0., 2.14553699e-02, 4.27367181e-01, 0., 0.,
          0., 0. ]
      - [ 0., 0., 7.45989149e-04, 9.62036967e-01, 3.90570221e-06,
          5.46798328e-05, 1.74975465e-03, 2.71649390e-01, 0.,
          3.90570221e-06, 7.42083430e-05, 6.31552050e-03, 7.81140443e-06,
          1.91379411e-04, 3.82758823e-04, 2.45590564e-02, 0., 0., 0.,
          6.13195240e-04, 3.90570221e-06, 0., 0., 0., 0., 0., 0.,
          4.47984040e-03, 0., 0., 0., 0., 0., 0., 0., 4.06974182e-03, 0.,
          0., 0., 0., 0., 0., 0., 5.27269789e-04, 0., 0., 0., 0., 0., 0.,
          0., 2.31217570e-03, 0., 0., 0., 0., 0., 0., 0., 1.41386420e-03,
          0., 0., 0., 0. ]
      - [ 0., 1.09180146e-04, 2.70576886e-04, 9.97279942e-01, 0., 0., 0.,
          0., 1.24370435e-03, 3.53648746e-03, 4.41942252e-02,
          3.22888419e-02, 1.34339056e-03, 2.80070808e-02, 3.67225073e-02,
          4.93684143e-04, 3.79757039e-05, 6.19003968e-03, 1.22186830e-02,
          4.61879512e-03, 0., 7.55241793e-03, 5.22165938e-05, 0., 0., 0.,
          4.74696299e-06, 1.14401802e-03, 0., 0., 0., 0., 0., 0., 0.,
          1.38136628e-03, 0., 0., 0., 0., 0., 0., 0., 3.60294501e-03, 0.,
          0., 0., 0., 0., 0., 0., 2.28803605e-03, 0., 0., 0., 0., 0., 0.,
          0., 7.16791430e-04, 0., 0., 0., 0. ]
      - [ 0., 0., 7.22455385e-04, 9.59832013e-01, 7.22455370e-05,
          2.09512073e-03, 2.55082315e-03, 2.72071153e-01, 0., 0., 0.,
          1.10924691e-02, 0., 0., 0., 1.89116597e-02, 0., 0., 0.,
          1.21150212e-03, 0., 0., 0., 0., 0., 0., 0., 4.83489363e-03, 0.,
          0., 0., 0., 0., 0., 0., 4.97771762e-02, 0., 0., 0., 0., 0., 0.,
          0., 3.63061614e-02, 0., 0., 0., 0., 0., 0., 5.55734914e-06,
          1.05033899e-02, 1.11146983e-05, 0., 0., 0., 0., 1.66720474e-05,
          3.66785040e-04, 1.66220311e-02, 7.78028916e-05, 4.44587931e-04,
          1.05589635e-04, 1.66720474e-05 ]
      - [ 0., 0., 0., 9.63389575e-01, 0., 0., 0., 3.70377747e-05, 0., 0.,
          4.67601902e-04, 6.52096346e-02, 0., 4.62972184e-06,
          4.56814654e-02, 2.53810614e-01, 0., 4.62972184e-06,
          3.05561640e-04, 2.16809865e-02, 0., 6.66679931e-04,
          2.48708650e-02, 1.50002993e-03, 0., 0., 0., 3.75933410e-03, 0.,
          0., 0., 0., 0., 0., 0., 1.86577789e-03, 0., 0., 0., 0., 0., 0.,
          0., 1.78244291e-03, 0., 0., 0., 0., 0., 0., 0., 3.01394891e-03,
          0., 0., 0., 0., 0., 0., 0., 3.10191361e-04, 0., 0., 0., 0. ]
      - [ 0., 0., 0., 9.94323134e-01, 0., 0., 0., 0., 2.21334732e-04,
          2.30085175e-03, 1.93333309e-02, 2.73580030e-02, 0.,
          7.10330089e-04, 6.34046793e-02, 5.68264071e-03, 6.69151545e-04,
          1.50353201e-02, 4.71906252e-02, 3.04360986e-02, 5.14731946e-05,
          2.28798352e-02, 4.70310561e-02, 1.54419577e-05, 0.,
          1.02946387e-05, 5.14731937e-06, 4.59140865e-03, 0., 0., 0., 0.,
          0., 0., 0., 1.23020937e-03, 0., 0., 0., 0., 0., 0., 0.,
          9.67696018e-04, 0., 0., 0., 0., 0., 0., 0., 1.42580748e-03, 0.,
          0., 0., 0., 0., 0., 0., 3.91196285e-04, 0., 0., 0., 0. ]
      - [ 0., 0., 1.12092421e-04, 9.38841283e-01, 0., 0., 1.96161738e-04,
          3.30689460e-01, 0., 0., 0., 2.44921935e-03, 0., 0., 0.,
          2.84714741e-03, 0., 0., 0., 4.93206666e-04, 0., 0., 0., 0., 0.,
          0., 0., 1.28906278e-03, 0., 0., 0., 0., 0., 0., 0.,
          1.54967774e-02, 0., 0., 0., 0., 0., 0., 0., 9.42248926e-02, 0.,
          0., 0., 0., 0., 0., 0., 4.81997430e-03, 0., 0., 0., 0., 0., 0.,
          5.60462104e-06, 7.98658468e-03, 0., 0., 0., 0. ]
      - [ 0., 3.38067657e-05, 6.19790735e-05, 9.71944511e-01, 0.,
          2.25378444e-05, 1.69033829e-05, 0., 9.18417179e-04,
          1.31282944e-03, 5.27949026e-03, 1.64019167e-02, 4.16950119e-04,
          1.34607274e-02, 3.80438827e-02, 6.80417493e-02, 7.71921186e-04,
          1.06491311e-03, 2.05657841e-03, 2.01150263e-03, 2.14109517e-04,
          0., 0., 0., 4.50756888e-05, 1.63399367e-04, 1.32409832e-03,
          4.44558961e-03, 1.12689222e-05, 0., 0., 0., 1.69033829e-05,
          4.50756888e-05, 2.03404040e-03, 2.11410612e-01, 0., 0., 0., 0.,
          1.12689222e-05, 5.63446110e-06, 5.63446110e-06, 6.35060146e-02,
          0., 0., 0., 0., 0., 0., 0., 1.67343498e-03, 0., 0., 0., 0., 0.,
          0., 0., 1.29592605e-04, 0., 0., 0., 0. ]
      - [ 1.14478516e-05, 7.78453890e-04, 2.55668676e-03, 9.35415387e-01,
          5.68576623e-04, 2.78564380e-03, 8.13179091e-03, 3.49819630e-01,
          8.39509157e-05, 3.12640816e-02, 2.36398131e-02, 1.07609807e-02,
          1.49585260e-03, 1.00359498e-02, 4.00674820e-04, 1.10319126e-02,
          3.81595055e-06, 5.03705465e-04, 3.85410996e-04, 5.64760703e-04,
          0., 7.63190110e-06, 0., 0., 0., 7.63190110e-06, 4.96073553e-05,
          8.05165560e-04, 0., 0., 0., 0., 0., 7.63190110e-06,
          1.52638022e-05, 3.70910391e-03, 0., 0., 0., 0., 0.,
          2.28957033e-05, 8.77668645e-05, 3.92279727e-03, 0., 0., 0., 0.,
          0., 1.90797527e-05, 1.14478516e-05, 4.76230634e-03, 0., 0., 0.,
          0., 0., 1.83165626e-04, 3.77779099e-04, 2.47502550e-02,
          1.37374212e-04, 1.22110418e-04, 3.81595055e-06, 0. ]
      - [ 8.67290437e-05, 2.07530218e-03, 1.22473799e-02, 9.27616715e-01,
          3.30189872e-03, 9.80038196e-03, 1.23279141e-02, 3.51481855e-01,
          8.85875255e-04, 7.04363734e-03, 1.00977384e-02, 1.10845916e-01,
          1.80892006e-03, 2.37203930e-02, 7.55781680e-03, 4.94045801e-02,
          0., 0., 6.19493176e-06, 1.27615593e-03, 0., 0., 0., 0., 0., 0.,
          0., 7.68171565e-04, 0., 0., 0., 0., 0., 0., 0., 4.80726687e-03,
          0., 0., 0., 0., 0., 0., 0., 2.36646389e-03, 0., 0., 0., 0., 0.,
          0., 0., 6.28785556e-03, 0., 0., 0., 0., 0., 0., 0.,
          9.84994113e-04, 4.95594541e-05, 0., 0., 0. ]
      - [ 0., 0., 1.09574466e-04, 9.40516531e-01, 0., 3.88812623e-05,
          4.45367186e-04, 3.38065505e-01, 0., 3.53466021e-06,
          1.83802331e-04, 3.34131420e-02, 0., 6.85724081e-04,
          3.00092646e-03, 1.24066579e-03, 0., 0., 0., 3.92347283e-04, 0.,
          0., 0., 0., 0., 0., 0., 4.06485924e-04, 0., 0., 0., 0., 0., 0.,
          0., 3.20947147e-03, 0., 0., 0., 0., 0., 0., 0., 6.07961556e-04,
          0., 0., 0., 0., 0., 0., 0., 1.28308171e-03, 0., 0., 0., 0., 0.,
          0., 0., 2.82772817e-04, 0., 0., 0., 0. ]
      - [ 5.05558091e-06, 0., 1.26389525e-04, 9.61632133e-01,
          2.93223682e-04, 3.64001840e-04, 1.46611850e-03, 2.65412956e-01,
          2.02223237e-05, 2.07278819e-04, 1.12233893e-03, 7.34070363e-03,
          3.72141302e-02, 7.31542567e-03, 2.38117855e-03, 2.00201012e-03,
          1.01111618e-05, 8.13948514e-04, 3.42262839e-03, 2.31545605e-03,
          1.35894017e-02, 5.44637740e-02, 4.61068982e-03, 0.,
          5.05558091e-06, 0., 1.01111618e-05, 1.06672756e-03,
          2.02223237e-05, 0., 0., 0., 0., 0., 1.01111618e-05,
          4.31241048e-03, 5.05558091e-06, 0., 0., 0., 0., 0., 0.,
          1.35489565e-03, 0., 0., 0., 0., 0., 0., 0., 3.78157455e-03,
          5.05558091e-06, 0., 0., 0., 1.01111618e-05, 0., 0.,
          9.38821398e-03, 1.51667427e-05, 0., 5.05558091e-06, 0. ]
      - [ 2.74039339e-05, 1.33104826e-04, 3.51553317e-03, 9.41794872e-01,
          5.08930207e-05, 5.51993493e-04, 2.14572791e-02, 3.26713622e-01,
          0., 0., 4.30633227e-05, 1.49938662e-03, 0., 2.74039339e-05,
          7.04672566e-05, 2.07486926e-04, 0., 0., 3.91484764e-06,
          2.77954183e-04, 0., 0., 0., 0., 0., 0., 0., 4.58037161e-04, 0.,
          0., 0., 0., 0., 0., 3.91484764e-06, 3.23757902e-03, 0., 0., 0.,
          0., 0., 0., 1.17445434e-05, 5.70393316e-02, 0., 0., 0., 0., 0.,
          0., 1.80082992e-04, 2.72982325e-02, 0., 0., 0., 0., 0., 0.,
          6.22069277e-03, 4.19162735e-02, 0., 0., 0., 0. ]
      - [ 1.64473786e-05, 2.87829134e-05, 7.40132018e-05, 9.94737446e-01,
          4.52302920e-05, 8.22368929e-06, 0., 0., 1.31579029e-04,
          2.72204122e-03, 1.14967180e-02, 1.54810948e-02, 2.06003408e-03,
          6.60033301e-02, 6.98355660e-02, 3.42105469e-03, 3.70066009e-05,
          3.12500197e-04, 1.03207305e-03, 7.57401763e-03, 3.41283099e-04,
          5.61677990e-03, 2.12130062e-02, 8.04688036e-03, 0., 0.,
          8.22368929e-06, 1.42269824e-02, 0., 0., 0., 0., 4.11184465e-06,
          0., 0., 3.16200848e-03, 0., 0., 0., 0., 0., 4.11184465e-06, 0.,
          4.60115401e-03, 0., 0., 0., 0., 0., 0., 0., 5.48108900e-03, 0.,
          0., 0., 0., 8.22368929e-06, 0., 4.11184465e-06, 3.57730489e-04,
          0., 0., 0., 0. ]
      - [ 4.29568718e-05, 1.82566699e-04, 1.11150905e-03, 9.49969769e-01,
          5.36960906e-05, 1.82566710e-03, 4.84875683e-03, 3.10078800e-01,
          0., 3.75872623e-05, 1.71827487e-04, 1.75264031e-02,
          8.05441377e-05, 2.89958873e-04, 2.14784362e-04, 3.04886401e-02,
          0., 0., 0., 1.37461990e-03, 0., 0., 0., 0., 0., 0., 0.,
          7.51745247e-04, 0., 0., 0., 0., 0., 0., 0., 4.52658022e-03, 0.,
          0., 0., 0., 0., 0., 0., 1.12224824e-03, 0., 0., 0., 0., 0., 0.,
          0., 6.49185712e-03, 0., 0., 0., 0., 1.44979436e-04,
          4.29568718e-05, 0., 8.77394062e-03, 2.25523574e-04,
          3.91981448e-04, 0., 0. ]
      - [ 0., 0., 0., 9.84962344e-01, 0., 0., 0., 0., 0., 0.,
          3.66127730e-04, 3.41750085e-02, 0., 0., 1.88439917e-02,
          1.66078314e-01, 0., 0., 4.49549232e-04, 4.40743612e-03, 0., 0.,
          2.65048668e-02, 2.24774610e-03, 0., 0., 0., 5.93219593e-04, 0.,
          0., 0., 0., 0., 0., 0., 1.44597271e-03, 0., 0., 0., 0., 0., 0.,
          0., 1.23741897e-03, 0., 0., 0., 0., 0., 0., 0., 3.56858666e-03,
          0., 0., 0., 0., 0., 0., 0., 2.68802629e-04, 0., 0., 0., 0. ]
      - [ 4.44796569e-06, 1.86814563e-04, 1.03637599e-03, 9.28334892e-01,
          3.11357580e-05, 5.64891670e-04, 2.44193315e-03, 3.02412748e-01,
          0., 1.77918628e-05, 4.89276252e-04, 1.55456401e-02,
          2.66877942e-05, 7.65050121e-04, 5.07735275e-02, 2.09370196e-01,
          0., 0., 4.44796569e-06, 1.41890103e-03, 0., 0., 1.77918628e-05,
          8.89593139e-06, 0., 4.44796569e-06, 4.44796569e-06,
          1.06306386e-03, 0., 0., 0., 0., 0., 4.44796569e-06, 0.,
          5.49768563e-03, 0., 0., 0., 0., 0., 0., 0., 2.20174296e-03, 0.,
          0., 0., 0., 0., 8.89593139e-06, 4.44796569e-06, 6.10260898e-03,
          0., 0., 0., 0., 4.44796569e-06, 1.06751177e-04, 6.67194836e-05,
          1.26767019e-03, 0., 4.00316931e-05, 2.22398285e-05, 0. ]
      - [ 0., 0., 9.17419857e-06, 9.95593190e-01, 0., 0., 0.,
          9.17419820e-05, 4.58709928e-06, 1.23392965e-03, 8.99071433e-03,
          7.12376507e-03, 5.50451914e-05, 4.79902327e-02, 7.96824992e-02,
          1.00916186e-04, 0., 0., 0., 9.17419820e-05, 0., 0., 0., 0., 0.,
          0., 0., 1.83483971e-05, 0., 0., 0., 0., 0., 0., 0.,
          2.61464651e-04, 0., 0., 0., 0., 0., 0., 0., 1.47245883e-03, 0.,
          0., 0., 0., 0., 0., 0., 2.54584011e-03, 0., 0., 0., 0., 0., 0.,
          0., 1.14677481e-04, 0., 0., 0., 0. ]
      - [ 0., 0., 5.85388625e-06, 9.26090658e-01, 0., 4.68310900e-05,
          9.65891231e-04, 3.62999499e-01, 0., 0., 5.56119194e-04,
          4.73228171e-02, 0., 6.84904691e-04, 8.96756798e-02,
          1.47693548e-02, 0., 0., 0., 1.86153583e-03, 0., 1.17077725e-05,
          4.68310900e-05, 1.75616588e-05, 0., 0., 0., 8.72229051e-04, 0.,
          0., 0., 0., 0., 0., 0., 4.98165702e-03, 0., 0., 0., 0., 0., 0.,
          0., 2.76888814e-03, 0., 0., 0., 0., 0., 0., 0., 6.97197858e-03,
          0., 0., 0., 0., 0., 0., 0., 1.04199175e-03, 0., 0., 0., 0. ]
      - [ 0., 4.45274491e-04, 4.56616376e-03, 9.33727980e-01, 0.,
          4.78880102e-04, 1.24340795e-03, 3.57836872e-01, 0.,
          4.20070273e-06, 2.10035141e-05, 8.20817333e-03, 0.,
          7.14119451e-05, 2.98249885e-04, 1.97433023e-04, 0., 0., 0.,
          5.79696964e-04, 0., 0., 0., 0., 0., 0., 0., 4.15869581e-04, 0.,
          0., 0., 0., 0., 0., 4.20070273e-06, 3.44877690e-03, 0., 0., 0.,
          0., 0., 0., 0., 3.90665344e-04, 0., 0., 0., 0., 0., 0., 0.,
          1.31481991e-03, 0., 0., 0., 0., 0., 0., 1.26021077e-05,
          4.28471685e-04, 0., 0., 0., 0. ]
      - [ 2.76674855e-05, 3.60230654e-02, 9.07970786e-01, 8.55617002e-02,
          6.21135067e-03, 2.32891068e-02, 2.29702383e-01, 3.24989200e-01,
          0., 5.21532120e-03, 1.74720176e-02, 2.31023505e-03, 0., 0.,
          7.60855837e-05, 8.75814259e-02, 0., 0., 0., 0., 0., 0., 0., 0.,
          0., 0., 0., 0., 0., 0., 0., 0., 0., 0., 0., 0., 0., 0., 0., 0.,
          0., 0., 0., 6.91687137e-06, 0., 0., 0., 0., 0., 0., 0.,
          1.10669942e-04, 2.76674855e-05, 0., 0., 0., 0., 0.,
          2.07506146e-05, 3.94261675e-04, 1.24503684e-04, 0., 0., 0. ]
      - [ 4.32197594e-05, 0., 7.18682818e-03, 9.24081683e-01,
          4.53807460e-03, 8.01417790e-03, 2.14462623e-01, 3.13763112e-01,
          0., 0., 8.64395188e-05, 2.17086673e-02, 3.08712551e-05,
          1.23485024e-05, 8.02652648e-05, 3.08527332e-02, 0., 0., 0.,
          1.33981253e-03, 1.04962273e-04, 0., 0., 0., 6.17425121e-06, 0.,
          0., 1.11753948e-03, 1.85227545e-05, 0., 0., 0., 0., 0., 0.,
          6.93368400e-03, 0., 0., 0., 0., 0., 0., 0., 1.19163049e-03, 0.,
          0., 0., 0., 0., 0., 0., 4.02561156e-03, 4.32197594e-05, 0., 0.,
          0., 1.85227545e-05, 0., 0., 1.78435864e-03, 2.34621548e-04, 0.,
          6.17425121e-06, 0. ]
      - [ 0., 6.64663312e-05, 2.08894184e-04, 9.96225834e-01, 0.,
          1.89903803e-05, 2.84855705e-05, 3.16506339e-06, 0.,
          1.55088113e-04, 7.02960556e-03, 2.21016370e-02, 3.16506339e-06,
          2.59851711e-03, 5.27267903e-02, 5.86043149e-02, 0.,
          2.97515944e-04, 4.20953427e-03, 4.65580821e-03, 0.,
          3.86137748e-04, 8.22916481e-05, 0., 0., 8.86217749e-05,
          1.07612155e-04, 8.26081552e-04, 0., 0., 0., 0., 0.,
          1.32932662e-04, 5.38060791e-04, 2.64630951e-02, 0., 0., 0., 0.,
          0., 0., 0., 5.21918945e-03, 0., 0., 0., 0., 0., 0., 0.,
          2.54787598e-03, 0., 0., 0., 0., 0., 3.16506339e-06, 0.,
          1.26602536e-04, 0., 0., 0., 0. ]
      - [ 1.99172609e-05, 1.36101284e-04, 1.36433239e-03, 9.73638713e-01,
          3.98345219e-05, 3.41912993e-04, 6.24074193e-04, 2.27611139e-01,
          0., 1.36101284e-04, 2.07471475e-03, 4.69383458e-03, 0.,
          8.26566387e-03, 5.31790871e-03, 8.79015122e-03, 0.,
          8.29885903e-05, 5.47724660e-04, 8.03329516e-04, 0.,
          7.00423669e-04, 3.41912993e-04, 0., 0., 0., 8.29885903e-05,
          4.84653370e-04, 0., 0., 0., 0., 0., 0., 2.98758911e-04,
          3.35273892e-03, 0., 0., 0., 0., 0., 0., 1.06225394e-04,
          7.33619148e-04, 0., 0., 0., 0., 0., 0., 9.62667618e-05,
          2.08467338e-03, 0., 0., 0., 0., 0., 6.63908713e-06,
          8.29885903e-05, 4.54777473e-04, 0., 0., 0., 0. ]
      - [ 1.89013990e-05, 1.46485836e-04, 2.33432278e-03, 9.91061807e-01,
          9.45069951e-06, 3.30774492e-04, 1.09155581e-03, 5.67041970e-05,
          4.01654717e-04, 1.56881614e-03, 1.43225351e-02, 2.18641926e-02,
          2.74070277e-04, 1.10242413e-02, 2.42504943e-02, 1.52628799e-03,
          4.81985684e-04, 1.45588024e-02, 2.33857557e-02, 2.81158299e-03,
          2.91554071e-03, 1.20028608e-01, 3.34743783e-02, 0.,
          2.40992842e-04, 3.21323780e-04, 2.55168881e-04, 6.94626418e-04,
          1.74837944e-04, 9.45069951e-06, 0., 0., 1.32309797e-04,
          1.89013990e-05, 2.50443525e-04, 4.27644141e-03, 1.18133743e-04,
          0., 0., 0., 6.61548984e-05, 2.83520985e-05, 5.67041970e-05,
          6.56351075e-03, 4.25281469e-05, 0., 0., 0., 2.36267479e-05, 0.,
          4.72534975e-06, 5.16008213e-03, 0., 0., 0., 0., 1.41760493e-05,
          4.72534975e-06, 0., 5.05612406e-04, 0., 0., 0., 0. ]
      - [ 1.16393130e-04, 2.93513120e-04, 1.64468552e-03, 9.55162525e-01,
          1.11332556e-04, 2.05965224e-03, 1.68010946e-02, 2.91423082e-01,
          7.94509600e-04, 6.62428746e-03, 3.81567050e-03, 2.57937293e-02,
          2.35822611e-03, 3.07783913e-02, 1.45946862e-02, 2.23019365e-02,
          2.83391972e-04, 1.12344674e-03, 6.47753070e-04, 2.63149687e-03,
          5.00996539e-04, 2.02422831e-04, 0., 0., 5.06057086e-06,
          5.06057086e-06, 1.01211417e-05, 9.71629634e-04, 0., 0., 0., 0.,
          0., 0., 5.06057086e-06, 4.05857805e-03, 0., 0., 0., 0., 0., 0.,
          5.06057086e-06, 2.94525223e-03, 0., 0., 0., 0., 0.,
          5.06057086e-06, 0., 4.97454125e-03, 0., 0., 0., 0., 0., 0., 0.,
          6.32571348e-04, 0., 0., 0., 0. ]
      - [ 0., 5.46541705e-05, 3.36333353e-04, 9.93806243e-01, 0.,
          8.40833382e-05, 1.17716678e-04, 4.20416700e-06, 0.,
          2.90087512e-04, 1.66989509e-02, 2.62508187e-02, 4.20416700e-06,
          6.16330886e-03, 1.04225501e-01, 2.17313394e-02, 0., 0.,
          3.23720858e-04, 9.79570905e-04, 0., 4.20416700e-06,
          3.78375044e-05, 0., 0., 0., 0., 2.94291676e-04, 0., 0., 0., 0.,
          0., 0., 0., 1.18977926e-03, 0., 0., 0., 0., 0., 0., 0.,
          1.23182090e-03, 0., 0., 0., 0., 0., 0., 4.20416700e-06,
          1.91289594e-03, 0., 0., 0., 0., 0., 0., 4.20416700e-06,
          8.82875102e-05, 0., 0., 0., 0. ]
      - [ 0., 0., 0., 5.36822621e-03, 0., 0., 0., 0., 7.62761920e-04,
          3.60000529e-03, 2.55871955e-02, 9.62594032e-01, 3.65201174e-03,
          1.95423082e-01, 1.78474739e-01, 5.09316958e-02, 0., 0.,
          1.73354983e-05, 1.24815595e-03, 7.51204963e-04, 6.33901404e-03,
          2.19582987e-04, 5.77849960e-06, 0., 0., 0., 3.87159467e-04, 0.,
          0., 0., 0., 0., 0., 0., 1.60064443e-03, 0., 0., 0., 0., 0., 0.,
          0., 1.10947189e-03, 0., 0., 0., 0., 0., 0., 0., 4.28186823e-03,
          0., 0., 0., 0., 0., 0., 0., 5.14286454e-04, 0., 0., 0., 0. ]
      - [ 3.14741897e-06, 5.35061226e-05, 7.33348599e-04, 9.95541215e-01,
          1.88845133e-05, 9.12751493e-05, 7.55380534e-05, 6.29483793e-06,
          1.07012245e-04, 1.31247367e-03, 8.10460374e-03, 4.30157743e-02,
          4.31196386e-04, 5.77047803e-02, 5.98607622e-02, 7.84966256e-03,
          6.29483793e-06, 1.88845137e-04, 6.29483766e-05, 3.11594486e-04,
          0., 0., 0., 0., 0., 5.35061226e-05, 1.57370941e-05,
          1.19601922e-04, 0., 0., 0., 0., 0., 2.51793517e-05,
          4.40638651e-05, 2.89562537e-04, 0., 0., 0., 0., 0.,
          1.57370941e-05, 3.77690267e-05, 1.94510492e-03, 0., 0., 0., 0.,
          0., 0., 0., 5.88567345e-04, 0., 0., 0., 0., 0., 0., 0.,
          2.32909006e-04, 0., 0., 0., 0. ]
      - [ 0., 0., 4.58823752e-06, 9.97542500e-01, 0., 0., 0., 0.,
          1.28470652e-04, 2.16105976e-03, 2.00505983e-02, 2.44277772e-02,
          0., 4.12941372e-05, 5.78026175e-02, 1.93027146e-02,
          9.17647503e-06, 2.43176590e-04, 2.61529553e-04, 4.95529675e-04,
          0., 0., 0., 0., 0., 1.42235367e-04, 7.11176835e-04,
          1.33058883e-03, 0., 0., 0., 0., 0., 2.75294260e-05,
          4.58823750e-04, 8.18541553e-03, 0., 0., 0., 0., 0.,
          3.67059001e-05, 5.04706113e-05, 1.09796524e-02, 0., 0., 0., 0.,
          0., 0., 0., 1.20211823e-03, 0., 0., 0., 0., 0., 0., 0.,
          6.88235596e-05, 0., 0., 0., 0. ]
      - [ 0., 0., 3.15615820e-04, 9.91670310e-01, 0., 0., 5.34942092e-06,
          0., 0., 6.95424751e-05, 2.77688447e-02, 2.37728264e-02, 0.,
          1.12337839e-04, 5.61528727e-02, 4.93537560e-02, 0.,
          1.60482632e-05, 8.12737495e-02, 1.14317127e-02, 0., 0.,
          5.36546903e-03, 0., 0., 0., 1.09128188e-03, 1.48499925e-02, 0.,
          0., 0., 0., 0., 0., 1.40154827e-03, 5.12688495e-02, 0., 0., 0.,
          0., 0., 0., 4.81447896e-05, 5.76667581e-03, 0., 0., 0., 0., 0.,
          0., 0., 3.78204067e-03, 0., 0., 0., 0., 0., 0., 5.34942092e-06,
          3.85158317e-04, 0., 0., 0., 0. ]
      - [ 7.76066518e-05, 4.85041564e-05, 1.06709143e-04, 9.93947208e-01,
          1.98867041e-04, 9.70083129e-05, 1.94016629e-05, 0.,
          1.18835189e-03, 2.23119115e-03, 2.05512121e-02, 3.10572125e-02,
          9.07027721e-03, 9.79395956e-02, 3.01598851e-02, 1.01858728e-04,
          5.33545717e-05, 6.11152383e-04, 3.72511940e-03, 6.37344643e-03,
          1.79465383e-03, 4.13255440e-03, 1.01858728e-04, 0., 0., 0.,
          9.70083147e-06, 6.16002770e-04, 1.16409981e-04, 0., 0., 0., 0.,
          0., 0., 1.11074524e-03, 1.94016629e-05, 0., 0., 0., 0., 0., 0.,
          1.78010261e-03, 5.82049906e-05, 0., 0., 0., 0., 0., 0.,
          3.38073983e-03, 0., 0., 0., 0., 0., 0., 0., 4.51088650e-04, 0.,
          0., 0., 0. ]
      - [ 0., 4.76629502e-05, 4.28966559e-05, 9.95993614e-01, 0., 0., 0.,
          0., 3.81303616e-05, 1.41082343e-03, 1.49947647e-02,
          2.36551240e-02, 2.14483283e-04, 6.08894229e-02, 5.79343177e-02,
          7.37822475e-03, 1.33456269e-04, 2.40221270e-03, 3.75107443e-03,
          2.59763096e-03, 7.48308375e-04, 3.65098217e-03, 8.10270212e-05,
          0., 2.38314751e-05, 2.04950687e-04, 2.85977701e-04,
          1.29166595e-03, 3.81303616e-05, 0., 0., 0., 4.76629521e-06,
          2.85977712e-05, 1.85885510e-04, 3.77013953e-03, 0., 0., 0., 0.,
          0., 0., 9.53259041e-06, 2.12576776e-03, 0., 0., 0., 0., 0., 0.,
          0., 5.51460357e-03, 0., 0., 0., 0., 0., 0., 4.76629521e-06,
          6.72047609e-04, 0., 0., 0., 0. ]
      - [ 0., 0., 6.45763066e-05, 9.96739924e-01, 0., 0., 0.,
          4.61259333e-06, 0., 3.22881533e-05, 3.16423886e-02,
          2.24448796e-02, 0., 4.15133400e-04, 5.32800667e-02,
          2.99818581e-04, 0., 0., 0., 6.91888999e-05, 0., 0., 0., 0., 0.,
          0., 0., 3.69007466e-05, 0., 0., 0., 0., 0., 0., 0.,
          9.68644599e-05, 0., 0., 0., 0., 0., 0., 9.22518666e-06,
          4.64764908e-02, 0., 0., 0., 0., 0., 0., 4.61259333e-06,
          7.05726794e-04, 0., 0., 0., 0., 0., 0., 4.61259333e-06,
          2.24172045e-03, 0., 0., 0., 0. ]
      - [ 0., 0., 3.32843447e-05, 9.94393587e-01, 0., 0., 0., 0., 0.,
          1.24103064e-03, 1.37416795e-02, 8.46848823e-03, 0.,
          7.65825212e-02, 6.86608478e-02, 1.42647195e-05, 0., 0., 0.,
          4.18431766e-04, 0., 0., 0., 0., 0., 0., 0., 1.78974681e-02, 0.,
          0., 0., 0., 0., 0., 0., 7.08481064e-04, 0., 0., 0., 0., 0., 0.,
          0., 4.32220986e-03, 0., 0., 0., 0., 0., 0., 0., 5.27794647e-04,
          0., 0., 0., 0., 0., 0., 0., 2.71029683e-04, 0., 0., 0., 0. ]
      - [ 0., 2.08324946e-05, 6.42335275e-04, 9.66193736e-01, 0., 0.,
          7.29137319e-05, 2.50555873e-01, 0., 0., 0., 7.90593214e-03, 0.,
          0., 0., 5.97475953e-02, 0., 0., 0., 7.77746434e-04, 0., 0., 0.,
          0., 0., 0., 0., 8.40243942e-04, 0., 0., 0., 0., 0., 0., 0.,
          3.58666107e-03, 0., 0., 0., 0., 0., 0., 0., 7.18721072e-04, 0.,
          0., 0., 0., 0., 0., 0., 4.49634669e-03, 0., 0., 0., 0., 0., 0.,
          1.04162473e-05, 4.87480359e-03, 0., 0., 0., 3.47208243e-06 ]
      - [ 3.08988979e-06, 3.58427205e-04, 1.72415853e-03, 9.97679055e-01,
          6.17977958e-06, 1.91573170e-04, 1.60674274e-04, 2.16292283e-05,
          3.08988979e-06, 1.13398954e-03, 5.62359951e-03, 2.11441163e-02,
          1.85393383e-05, 4.80477884e-03, 5.67180179e-02, 1.65432692e-02,
          3.08988979e-06, 1.82303498e-04, 4.83876746e-03, 2.26797909e-02,
          1.23595592e-05, 1.79213603e-04, 6.37135282e-03, 1.05983217e-03,
          0., 6.17977958e-06, 3.24438413e-04, 4.24550846e-03, 0., 0., 0.,
          0., 0., 3.08988979e-06, 4.32584566e-05, 3.52247432e-03, 0., 0.,
          0., 0., 0., 0., 1.54494483e-05, 1.82612485e-03, 0., 0., 0., 0.,
          0., 3.08988979e-06, 6.17977958e-06, 5.05814981e-03, 0., 0., 0.,
          0., 0., 1.23595592e-05, 3.08988965e-05, 7.41573574e-04, 0., 0.,
          0., 0. ]
      - [ 4.40147451e-05, 2.44526364e-05, 3.66789551e-04, 9.95774925e-01,
          0., 3.91242174e-05, 9.78105436e-06, 0., 1.95621091e-04,
          2.84139626e-03, 6.89075282e-03, 6.68535056e-03, 4.89052727e-05,
          1.70190341e-03, 3.82439233e-03, 1.27153704e-04, 3.66789551e-04,
          8.41659773e-03, 1.84323974e-02, 1.19328860e-03, 7.04235921e-04,
          6.82473034e-02, 5.15901707e-02, 0., 1.76058980e-04,
          1.13460235e-03, 7.83462450e-03, 1.02212012e-03, 8.31389625e-05,
          7.33579072e-05, 9.78105436e-06, 0., 2.44526364e-05,
          2.15183201e-04, 1.81927613e-03, 1.20160254e-02, 0., 0., 0., 0.,
          0., 1.51606349e-04, 7.72703323e-04, 1.46471290e-02, 0., 0., 0.,
          0., 1.95621087e-05, 1.46715811e-05, 1.46715811e-05,
          1.24317203e-02, 0., 0., 0., 0., 4.40147451e-05, 4.89052718e-06,
          9.78105436e-06, 1.10036856e-03, 0., 0., 0., 0. ]
      - [ 0., 0., 0., 9.59595740e-01, 0., 0., 1.34169403e-03,
          2.72379994e-01, 0., 0., 0., 6.02259636e-02, 0., 0., 0.,
          3.65209132e-02, 0., 0., 0., 1.11092266e-03, 0., 0., 0., 0., 0.,
          0., 0., 2.87659210e-03, 0., 0., 0., 0., 0., 0., 0.,
          2.81755766e-03, 0., 0., 0., 0., 0., 0., 0., 6.54746720e-04, 0.,
          0., 0., 0., 0., 0., 0., 2.11450993e-03, 0., 0., 0., 0., 0., 0.,
          0., 3.43473686e-04, 0., 0., 8.05016462e-05, 0. ]
      - [ 0., 0., 0., 9.96247470e-01, 0., 0., 0., 0., 0., 3.02672779e-05,
          2.10573780e-03, 1.04076201e-02, 0., 2.48624082e-03,
          4.63435277e-02, 1.68199593e-03, 3.02672779e-05, 3.69260809e-03,
          3.80675904e-02, 1.95613094e-02, 9.94496295e-05, 2.93765552e-02,
          4.93875518e-02, 7.56681955e-04, 0., 4.75628658e-05,
          4.88600344e-04, 7.78733846e-03, 0., 2.16194858e-05, 0., 0., 0.,
          0., 0., 2.11006170e-03, 0., 0., 0., 0., 0., 0., 0.,
          1.08097424e-03, 0., 0., 0., 0., 0., 0., 0., 2.61163386e-03, 0.,
          0., 0., 0., 0., 0., 0., 1.94575361e-04, 0., 0., 0., 0. ]
      - [ 0., 2.50721332e-05, 5.43229544e-05, 9.97515738e-01,
          8.35737774e-06, 6.26803303e-05, 2.50721332e-05, 0., 0.,
          4.17868887e-06, 3.67724616e-03, 2.53395699e-02, 1.25360666e-05,
          4.13690199e-04, 4.60157208e-02, 3.30492519e-02, 0.,
          4.55059204e-03, 1.33759826e-02, 1.53399669e-02, 0.,
          3.84439365e-04, 9.99124534e-03, 8.35737774e-06, 0.,
          4.17868887e-06, 1.78430020e-03, 1.19134421e-02, 0., 0., 0., 0.,
          0., 0., 0., 2.03335006e-02, 0., 0., 0., 0., 0., 0., 0.,
          1.40821817e-03, 0., 0., 0., 0., 0., 0., 0., 1.14913948e-03, 0.,
          0., 0., 0., 0., 0., 0., 1.67147547e-04, 0., 0., 0., 0. ]
      - [ 0., 5.04423406e-05, 3.52015486e-03, 9.44900334e-01,
          3.60302442e-06, 8.53916805e-04, 2.24828720e-03, 3.25940400e-01,
          0., 9.36786382e-05, 3.63545166e-03, 8.38063471e-03, 0.,
          9.14087333e-03, 2.29620747e-02, 1.26826456e-02, 0., 0.,
          1.00884681e-04, 8.86344002e-04, 0., 0., 0., 0., 0., 0.,
          2.16181463e-04, 6.88177650e-04, 0., 0., 0., 0., 0., 0.,
          5.22438553e-04, 5.09467674e-03, 0., 0., 0., 0., 0., 0.,
          9.36786382e-05, 1.47724000e-03, 0., 0., 0., 0., 0., 0.,
          6.12514123e-05, 4.64069564e-03, 0., 0., 0., 0., 0., 0.,
          5.40453657e-05, 1.24304346e-03, 0., 0., 0., 0. ]
      - [ 0., 0., 0., 9.93171990e-01, 0., 0., 0., 0., 0., 2.79451888e-05,
          8.78277351e-04, 1.76932961e-02, 0., 4.35146503e-04,
          8.02306309e-02, 8.04142728e-02, 0., 3.99216970e-06,
          1.05393282e-03, 1.47630433e-02, 0., 1.03796410e-04,
          1.06311478e-02, 2.15577171e-03, 0., 0., 4.39138676e-05,
          8.38355627e-04, 0., 0., 0., 0., 0., 0., 0., 2.39130971e-03, 0.,
          0., 0., 0., 0., 0., 0., 2.55498849e-03, 0., 0., 0., 0., 0., 0.,
          0., 6.49925228e-03, 0., 0., 0., 0., 0., 0., 0., 3.83248291e-04,
          0., 0., 0., 0. ]
      - [ 0., 3.48068352e-05, 7.75322272e-03, 9.51079369e-01,
          9.57187949e-05, 1.82300794e-03, 8.24051816e-03, 3.07105064e-01,
          0., 4.35085440e-06, 2.46693450e-03, 2.31682993e-02,
          1.39227341e-04, 7.52697815e-04, 5.67786489e-03, 1.64505802e-02,
          0., 2.61051264e-05, 6.74382434e-04, 2.98903696e-03,
          1.47929051e-04, 2.94552837e-03, 7.86199421e-03, 4.26383718e-04,
          0., 0., 8.70170916e-05, 2.24504084e-03, 8.70170879e-06,
          6.52628150e-05, 2.17542729e-05, 0., 0., 0., 6.96136703e-05,
          7.97076523e-03, 0., 0., 0., 0., 0., 0., 4.78593975e-05,
          1.02680165e-03, 0., 0., 0., 0., 0., 0., 2.17542729e-05,
          2.04055081e-03, 0., 0., 0., 0., 0., 4.35085440e-06,
          1.39227341e-04, 1.71423669e-03, 0., 0., 0., 0. ]
      - [ 4.93867537e-06, 1.08650856e-04, 1.53098939e-04, 9.94298577e-01,
          0., 3.45707267e-05, 4.93867556e-05, 1.48160261e-05,
          1.97547022e-04, 9.18593607e-04, 2.99777603e-03, 6.15556501e-02,
          5.13622246e-04, 1.21145705e-02, 6.46275058e-02, 5.14609963e-02,
          4.93867537e-06, 3.95094030e-05, 2.76565814e-04, 1.38085363e-02,
          1.08650856e-04, 1.53098939e-04, 1.23466889e-04, 0., 0., 0., 0.,
          1.92756504e-02, 0., 0., 0., 0., 0., 0., 0., 2.13350775e-03,
          4.93867537e-06, 0., 0., 0., 0., 0., 2.96320522e-05,
          3.10148811e-03, 0., 0., 0., 0., 0., 4.93867537e-06, 0.,
          4.77076042e-03, 0., 0., 0., 0., 0., 4.93867537e-06, 0.,
          2.76565814e-04, 0., 0., 0., 0. ]
      - [ 0., 7.22053528e-06, 3.64275998e-03, 9.46576059e-01, 0.,
          1.08308031e-05, 2.00514272e-02, 3.21736217e-01, 0., 0.,
          6.13745506e-05, 3.76189896e-03, 0., 0., 1.19138829e-04,
          2.66076718e-03, 0., 0., 1.44410706e-05, 8.30361561e-04, 0., 0.,
          0., 0., 0., 0., 3.61026764e-06, 1.15528563e-03, 0., 0., 0., 0.,
          0., 0., 3.61026764e-06, 4.74028150e-03, 0., 0., 0., 0., 0., 0.,
          3.61026764e-06, 8.19530746e-04, 0., 0., 0., 0., 0., 0.,
          3.61026759e-05, 2.90987571e-03, 0., 0., 0., 0., 0.,
          3.61026764e-06, 2.27446857e-04, 3.04706581e-03, 0., 0.,
          3.61026764e-06, 7.22053528e-06 ]
      - [ 0., 5.74168962e-06, 3.67468136e-04, 9.30486739e-01, 0.,
          6.31585863e-05, 1.47331757e-02, 3.54055554e-01, 0.,
          1.12020364e-02, 1.39924977e-02, 2.19102874e-02, 2.87084491e-04,
          8.74229670e-02, 6.95892796e-03, 3.67468136e-04, 0.,
          1.20575482e-04, 4.70818544e-04, 1.85456569e-03, 1.72250693e-05,
          9.18670339e-05, 1.14833792e-05, 0., 0., 0., 1.72250693e-05,
          1.18278805e-03, 0., 0., 0., 0., 0., 0., 2.29667585e-05,
          5.59240580e-03, 0., 0., 0., 0., 0., 0., 0., 3.87564045e-03, 0.,
          0., 0., 0., 0., 0., 0., 8.68717674e-03, 0., 0., 0., 0., 0., 0.,
          0., 1.50432263e-03, 0., 0., 0., 0. ]
      - [ 0., 5.57537751e-05, 1.54871595e-05, 9.97651875e-01, 0.,
          6.19486400e-06, 0., 0., 0., 2.78768886e-04, 1.48366997e-03,
          9.25202947e-03, 0., 1.57969029e-04, 4.98376787e-03,
          1.64039992e-02, 4.64614786e-05, 9.16839868e-04, 3.97586375e-02,
          8.76883045e-03, 0., 1.83987466e-03, 4.65575010e-02,
          2.82795541e-03, 3.71691858e-05, 3.09743191e-05, 2.72574020e-04,
          1.80890027e-03, 0., 0., 0., 0., 9.91178240e-05, 1.54871595e-04,
          5.45148039e-04, 2.13691834e-02, 0., 0., 0., 0., 4.64614786e-05,
          1.26994710e-04, 4.95589120e-05, 1.05312688e-03, 0., 0., 0., 0.,
          0., 0., 6.19486400e-06, 3.13460128e-03, 0., 0., 0., 0., 0., 0.,
          3.09743200e-06, 3.80984129e-04, 0., 0., 0., 0. ]
      - [ 3.00953427e-04, 8.13942228e-04, 1.59710518e-03, 9.96361077e-01,
          0., 0., 0., 0., 1.29957160e-04, 1.36797011e-04, 2.63676257e-03,
          7.89352953e-02, 0., 3.41992527e-05, 5.18118683e-03,
          3.68667953e-03, 3.86451575e-04, 1.35771034e-03, 1.10942377e-02,
          1.80606265e-02, 4.10391040e-05, 1.09506007e-02, 1.95038337e-02,
          4.20650840e-03, 2.39394776e-05, 1.50476713e-04, 1.09437613e-04,
          6.87405001e-04, 0., 0., 0., 0., 3.07793271e-05, 1.02597760e-05,
          1.06017687e-04, 1.47056789e-03, 0., 0., 0., 0., 4.44590296e-05,
          1.47056795e-04, 8.54981336e-05, 1.75442174e-03, 0., 0., 0., 0.,
          9.91778361e-05, 1.09437613e-04, 1.09437613e-04, 2.79065920e-03,
          0., 0., 0., 0., 1.70996263e-05, 7.18184310e-05, 3.41992527e-05,
          4.37750452e-04, 0., 0., 0., 0. ]
      - [ 2.11238250e-04, 2.40342179e-03, 4.52049822e-03, 9.41197813e-01,
          0., 2.83998088e-03, 5.87242329e-03, 3.33089858e-01, 0.,
          4.69418319e-06, 6.10243806e-05, 1.79411676e-02, 0.,
          1.68990591e-04, 3.14510282e-04, 5.27673140e-02, 0., 0., 0.,
          9.67001717e-04, 0., 2.81650991e-05, 2.34709150e-05,
          5.63301983e-05, 0., 0., 0., 4.13088128e-04, 0., 0., 0., 0., 0.,
          0., 0., 4.01822058e-03, 0., 0., 0., 0., 0., 0., 0.,
          5.82078705e-04, 0., 0., 0., 0., 0., 0., 0., 2.14524171e-03, 0.,
          0., 0., 0., 6.10243806e-05, 2.34709150e-05, 0., 6.33714721e-04,
          0., 0., 0., 0. ]
      - [ 0., 1.06355590e-04, 1.94214561e-04, 9.53866303e-01,
          1.84966248e-05, 1.24852217e-04, 6.42757688e-04, 2.98706621e-01,
          1.06355590e-04, 2.37681624e-03, 7.60673685e-03, 2.15809364e-02,
          1.92827312e-03, 1.71602443e-02, 2.28433311e-03, 1.63232710e-03,
          0., 4.00451943e-03, 4.12937161e-03, 1.16528734e-03,
          1.98838723e-04, 3.32939235e-04, 9.24831238e-06, 0., 0.,
          5.31777972e-04, 2.39993702e-03, 1.29938789e-03, 0., 0., 0., 0.,
          0., 4.62415619e-06, 3.88429122e-04, 5.01258532e-03, 0., 0., 0.,
          0., 0., 0., 2.77449362e-05, 1.56758900e-03, 0., 0., 0., 0., 0.,
          0., 9.24831238e-06, 2.61264830e-03, 0., 0., 0., 0., 0., 0.,
          4.62415619e-06, 8.87837959e-04, 0., 0., 0., 0. ]
      - [ 0., 0., 0., 9.93583441e-01, 0., 0., 0., 0., 0., 9.23969201e-04,
          1.38659328e-02, 4.19590734e-02, 0., 7.22550321e-04,
          8.86658803e-02, 5.45269735e-02, 0., 3.51683775e-05,
          4.79568807e-05, 2.84544163e-04, 0., 0., 0., 0., 0., 0.,
          1.27885014e-05, 1.56659138e-04, 0., 0., 0., 0., 0., 0.,
          3.19712535e-06, 3.35698162e-04, 0., 0., 0., 0., 0., 0., 0.,
          9.43152001e-04, 0., 0., 0., 0., 0., 0., 0., 1.32360985e-03, 0.,
          0., 0., 0., 0., 0., 0., 7.35338836e-05, 0., 0., 0., 0. ]
      - [ 0., 1.56921233e-04, 2.97747989e-04, 9.58495021e-01, 0.,
          1.32779503e-04, 8.12771497e-04, 2.80196935e-01, 0.,
          7.24251877e-05, 5.88655798e-03, 2.90907826e-02, 0.,
          2.34979484e-03, 1.30566517e-02, 4.08357345e-02, 0.,
          8.04724277e-06, 5.63306967e-04, 1.99169270e-03, 0.,
          1.60944855e-05, 1.36803123e-04, 0., 0., 0., 2.41417292e-05,
          1.19501550e-03, 0., 0., 0., 0., 0., 0., 8.04724277e-06,
          4.51852661e-03, 0., 0., 0., 0., 0., 0., 0., 1.93133822e-03, 0.,
          0., 0., 0., 0., 0., 0., 4.63521201e-03, 0., 0., 0., 0., 0.,
          4.02362139e-06, 4.02362139e-06, 5.43188886e-04, 0., 0., 0., 0. ]
      - [ 0., 0., 2.10376438e-05, 9.67284560e-01, 0., 0., 1.05188219e-05,
          5.25941095e-06, 0., 2.52451719e-04, 2.22999020e-03,
          9.86402556e-02, 0., 5.25941105e-05, 2.16687727e-03,
          2.33686149e-01, 0., 0., 1.05188219e-05, 2.89267598e-04, 0., 0.,
          0., 0., 0., 0., 0., 9.46693981e-05, 0., 0., 0., 0., 0., 0., 0.,
          5.73275785e-04, 0., 0., 0., 0., 0., 0., 0., 1.71456800e-03, 0.,
          0., 0., 0., 0., 0., 0., 2.89793545e-03, 0., 0., 0., 0., 0., 0.,
          0., 1.05188221e-04, 0., 0., 0., 0. ]
      - [ 0., 1.04532837e-05, 8.51942634e-04, 9.47130203e-01,
          3.65864922e-04, 1.92863087e-03, 7.89745618e-03, 3.18365216e-01,
          0., 2.09065674e-05, 5.59250708e-04, 6.92530070e-03, 0.,
          1.02964847e-03, 9.66928725e-04, 5.06984245e-04, 0.,
          2.56105443e-04, 2.81559192e-02, 7.54204439e-03, 0.,
          1.63384825e-02, 1.36049492e-02, 0., 0., 0., 3.13598517e-04,
          1.37460686e-03, 0., 1.04532837e-05, 0., 0., 0., 0., 0.,
          5.01757627e-03, 0., 0., 0., 0., 0., 0., 0., 1.04532833e-03, 0.,
          0., 0., 0., 0., 0., 0., 3.86771490e-03, 0., 0., 0., 0., 0.,
          5.22664186e-06, 5.22664186e-06, 1.12006934e-02, 6.27197005e-05,
          7.31729888e-05, 1.04532837e-05, 0. ]
      - [ 7.16350478e-05, 3.43848224e-04, 5.20548027e-04, 9.94423389e-01,
          1.19391749e-04, 5.10996673e-04, 4.25034610e-04, 5.73080397e-05,
          1.43270099e-05, 2.86540191e-04, 8.59143026e-03, 2.70446185e-02,
          5.39650675e-04, 1.07070515e-02, 9.60864797e-02, 2.86253653e-02,
          9.55133964e-06, 2.29232159e-04, 1.15571206e-03, 3.75367654e-03,
          9.55133946e-05, 2.62661837e-04, 6.49491092e-04, 1.67148450e-04,
          0., 9.55133964e-06, 3.34296899e-04, 2.99912062e-03, 0., 0., 0.,
          4.77566982e-06, 4.77566982e-06, 0., 7.16350478e-05,
          4.16438421e-03, 0., 0., 0., 0., 0., 4.77566982e-06,
          9.55133964e-06, 7.59331509e-03, 0., 0., 0., 0., 1.91026793e-05,
          2.38783487e-05, 4.77566973e-05, 6.84831059e-03, 0., 0., 0., 0.,
          1.91026793e-05, 1.43270099e-05, 5.73080397e-05, 1.38971990e-03,
          4.77566982e-06, 0., 0., 0. ]
      - [ 3.86318643e-05, 1.61551434e-04, 2.70423043e-04, 9.54537153e-01,
          1.26431551e-04, 4.53046407e-04, 7.79661234e-04, 2.97528565e-01,
          3.51198760e-05, 7.51565327e-04, 7.62101321e-04, 6.35669753e-03,
          5.19774156e-04, 4.25301725e-03, 8.07757140e-04, 0.,
          7.37517403e-05, 9.39807855e-03, 7.15743098e-03, 1.03603641e-03,
          3.93342605e-04, 8.76240898e-03, 1.17300393e-03, 0., 0.,
          6.32157753e-05, 3.86318643e-05, 1.05359626e-03, 0.,
          7.02397529e-06, 0., 0., 3.51198764e-06, 3.51198764e-06,
          7.02397529e-06, 3.88777023e-03, 0., 0., 0., 0., 1.75599380e-05,
          3.51198764e-06, 0., 5.47870062e-04, 0., 0., 0., 0.,
          1.05359632e-05, 0., 0., 1.98778510e-03, 3.51198764e-06, 0., 0.,
          0., 1.40479506e-05, 2.80959011e-05, 0., 5.88609139e-03,
          7.02397529e-06, 0., 0., 0. ]
      - [ 0., 2.21361643e-05, 2.21361639e-04, 9.34050202e-01,
          4.42723285e-05, 4.46412654e-04, 5.05442440e-04, 3.55528921e-01,
          0., 3.32042473e-05, 4.83306241e-04, 1.93174928e-02,
          6.64084946e-05, 7.24590430e-03, 7.47464458e-03, 2.87770131e-03,
          0., 1.47574428e-05, 1.77089314e-04, 2.32429733e-03,
          3.68936071e-06, 1.79745648e-02, 1.59232803e-02, 3.32042473e-05,
          0., 3.68936071e-06, 1.10680821e-05, 1.34292734e-03, 0., 0.,
          3.68936071e-06, 0., 0., 3.68936071e-06, 0., 5.34957321e-03, 0.,
          0., 0., 0., 0., 0., 7.37872142e-06, 2.18779081e-03, 0., 0., 0.,
          0., 0., 0., 3.68936071e-06, 6.12433860e-03, 0., 0., 0., 0., 0.,
          3.68936071e-06, 0., 2.01808033e-03, 0., 0., 0., 0. ]
      - [ 0., 7.68942846e-06, 9.61178594e-05, 9.39106047e-01,
          1.92235711e-05, 1.57633287e-04, 4.49831568e-04, 3.35270613e-01,
          3.84471423e-06, 1.88391001e-04, 6.68980298e-04, 1.05768088e-02,
          5.30570571e-04, 5.79782901e-03, 6.15154277e-04, 1.32258171e-02,
          7.68942846e-06, 1.57248811e-03, 2.44139344e-03, 4.01388155e-03,
          5.53638849e-04, 7.14424774e-02, 1.09920381e-02, 4.22918565e-05,
          0., 2.30682854e-05, 9.99625699e-05, 1.81854982e-03, 0., 0., 0.,
          0., 0., 0., 0., 6.55908231e-03, 0., 0., 0., 0., 0., 0., 0.,
          1.70320843e-03, 0., 0., 0., 0., 0., 0., 0., 7.12810038e-03, 0.,
          0., 0., 0., 0., 0., 0., 1.37256295e-03, 0., 0., 0., 0. ]
      - [ 0., 0., 3.83435072e-05, 9.75875795e-01, 0., 3.35505683e-05,
          2.73197482e-04, 3.73849209e-04, 0., 4.79293840e-06,
          3.05214319e-02, 1.61785632e-01, 4.79293840e-06, 5.17637352e-04,
          4.19094525e-02, 1.36052355e-01, 0., 4.79293849e-05,
          1.41727189e-02, 4.14109882e-03, 4.31364460e-05, 2.93327821e-03,
          6.14933996e-03, 0., 0., 0., 0., 3.78642144e-04, 0., 0., 0., 0.,
          0., 0., 0., 1.60563434e-03, 0., 0., 0., 0., 0., 0., 0.,
          2.84221256e-03, 0., 0., 0., 0., 0., 0., 0., 4.18423535e-03, 0.,
          0., 0., 0., 0., 0., 0., 6.18289050e-04, 0., 0., 0., 0. ]
      - [ 5.01152062e-05, 0., 0., 9.01015043e-01, 0., 0., 0., 0.,
          7.51728076e-05, 1.94196429e-04, 1.57988183e-02, 2.00022310e-02,
          5.51267294e-04, 3.62332948e-02, 1.33513168e-01, 6.82819693e-04,
          3.38277634e-04, 1.09000574e-03, 1.92943541e-03, 1.75904371e-02,
          3.55191529e-03, 6.95348484e-04, 1.25288016e-05, 0., 0., 0.,
          2.06725221e-04, 4.09566522e-01, 9.39660094e-05, 0., 0., 0., 0.,
          0., 0., 1.75215285e-02, 2.06725221e-04, 0., 0., 0.,
          1.25288016e-05, 0., 0., 9.27131332e-04, 3.32013238e-04, 0., 0.,
          0., 0., 0., 0., 1.49719184e-03, 0., 0., 0., 0., 0., 0., 0.,
          5.07416436e-04, 0., 0., 0., 0. ]
      - [ 0., 0., 1.59176016e-05, 9.98344004e-01, 0., 0., 0., 0., 0.,
          1.59176016e-05, 2.69007473e-03, 8.74672178e-03, 7.95880078e-06,
          1.09871244e-02, 4.96151634e-02, 1.96582382e-03, 0.,
          6.04868867e-04, 9.88483056e-03, 2.16877321e-03, 0.,
          6.47448422e-03, 2.21294463e-02, 3.97940021e-05, 0., 0.,
          4.77528047e-05, 3.86001833e-04, 0., 0., 0., 0., 0., 0., 0.,
          1.04658236e-03, 0., 0., 0., 0., 0., 0., 0., 7.28230283e-04, 0.,
          0., 0., 0., 0., 0., 0., 1.76685373e-03, 0., 0., 0., 0., 0., 0.,
          0., 1.79073017e-04, 0., 0., 0., 0. ]
      - [ 0., 0., 4.92362051e-05, 9.92441893e-01, 0., 4.10301709e-06, 0.,
          8.20603418e-06, 0., 4.10301709e-06, 4.51331871e-04,
          1.16402591e-02, 1.64120684e-05, 3.44653439e-04, 1.52221937e-02,
          1.10375263e-01, 0., 7.38543094e-05, 3.44653439e-04,
          9.67901759e-03, 7.38543094e-05, 2.74902151e-04, 3.98608111e-02,
          2.66285818e-02, 0., 0., 2.05150864e-05, 9.56413243e-03, 0., 0.,
          0., 0., 0., 0., 0., 3.54500674e-03, 0., 0., 0., 0., 0., 0., 0.,
          1.18987495e-03, 0., 0., 0., 0., 0., 0., 0., 3.38498899e-03, 0.,
          0., 0., 0., 0., 0., 0., 1.92841806e-04, 0., 0., 0., 0. ]
      - [ 2.27432727e-04, 4.74221451e-04, 1.76139397e-03, 9.95061755e-01,
          4.83899430e-06, 2.41949710e-05, 9.67798860e-06, 0.,
          4.69382445e-04, 2.83081178e-03, 1.91624183e-02, 2.17803139e-02,
          6.77459175e-05, 4.98997085e-02, 7.87449554e-02, 3.77441553e-04,
          0., 1.69364794e-04, 5.23579167e-03, 1.32394880e-02, 0.,
          4.83899430e-06, 4.35509501e-05, 0., 4.83899430e-06,
          1.93559772e-05, 8.51663004e-04, 6.95363479e-03, 0., 0., 0., 0.,
          0., 0., 1.74203800e-04, 7.11332168e-03, 0., 0., 0., 0., 0.,
          9.67798860e-06, 9.67798860e-06, 8.80696985e-04, 0., 0., 0., 0.,
          0., 0., 0., 2.12431839e-03, 0., 0., 0., 0., 0., 0., 0.,
          5.46806375e-04, 0., 0., 0., 0. ]
      - [ 0., 0., 0., 9.58504498e-01, 0., 0., 0., 2.83891499e-01, 0., 0.,
          0., 8.92986543e-03, 0., 0., 0., 3.38069571e-04, 0., 0., 0.,
          1.00937916e-03, 0., 0., 0., 0., 0., 0., 0., 9.61083453e-04, 0.,
          0., 0., 0., 0., 0., 0., 4.02302761e-03, 0., 0., 0., 0., 0., 0.,
          0., 2.24671364e-02, 0., 0., 0., 0., 0., 0., 0., 4.06166445e-03,
          0., 0., 0., 0., 0., 0., 0., 7.45201902e-03, 0., 0., 0., 0. ]
      - [ 3.04979130e-05, 4.35684487e-05, 1.26348503e-04, 9.98885095e-01,
          0., 0., 0., 0., 2.04771699e-04, 1.41597458e-03, 6.68775663e-03,
          7.64626265e-03, 5.22821356e-05, 3.96647155e-02, 2.30041407e-02,
          9.58505843e-05, 5.66389826e-05, 1.56846407e-04, 4.22613957e-04,
          7.49377301e-04, 8.71368957e-06, 0., 0., 0., 8.71368957e-06,
          7.40663600e-05, 6.53526746e-04, 1.04564277e-03, 0., 0., 0., 0.,
          0., 0., 2.43983304e-04, 3.88630549e-03, 0., 0., 0., 0., 0.,
          3.04979130e-05, 0., 1.09356805e-03, 0., 0., 0., 0., 0., 0., 0.,
          1.47697038e-03, 0., 0., 0., 0., 0., 0., 0., 1.21991652e-04, 0.,
          0., 0., 0. ]
      - [ 0., 1.20954013e-04, 1.42945646e-04, 9.70001698e-01, 0., 0., 0.,
          0., 0., 7.98296463e-03, 2.01146513e-01, 1.29684687e-01, 0.,
          3.47412899e-02, 2.32121740e-02, 2.19916383e-05, 0., 0., 0.,
          3.79355770e-04, 0., 0., 0., 0., 0., 0., 0., 2.41908027e-04, 0.,
          0., 0., 0., 0., 0., 0., 8.30184319e-04, 0., 0., 0., 0., 0., 0.,
          0., 1.62188336e-03, 0., 0., 0., 0., 0., 0., 0., 2.35310523e-03,
          0., 0., 0., 0., 0., 0., 0., 3.24376655e-04, 0., 0., 0., 0. ]
      - [ 0., 0., 7.25051577e-05, 9.94741797e-01, 1.35342969e-04,
          2.56184896e-04, 3.57692130e-04, 7.73388383e-05, 2.90020653e-05,
          4.80950903e-03, 1.98325776e-02, 3.25451493e-02, 1.52260833e-03,
          5.47075607e-02, 7.65074492e-02, 3.86694192e-05, 0., 0.,
          4.83367739e-06, 2.94854329e-03, 2.80353299e-04, 1.21035278e-02,
          4.35030961e-05, 0., 0., 0., 0., 1.57094514e-03, 0., 0., 0., 0.,
          0., 0., 0., 1.10691215e-03, 0., 0., 0., 0., 0., 0., 0.,
          1.25675614e-03, 0., 0., 0., 0., 0., 0., 0., 1.90930255e-03, 0.,
          0., 0., 0., 0., 0., 0., 9.18398728e-05, 0., 0., 0., 0. ]
      - [ 0., 1.82132280e-05, 6.82996062e-04, 9.98075783e-01,
          4.55330701e-06, 1.36599207e-04, 3.59255914e-03, 1.08824042e-03,
          0., 7.27163116e-03, 1.52717913e-02, 1.90920159e-02,
          1.48893136e-03, 4.14851792e-02, 3.76239754e-02, 5.81001956e-03,
          0., 0., 0., 4.32564178e-04, 0., 0., 0., 0., 0., 0., 0.,
          2.91411649e-04, 0., 0., 0., 0., 0., 0., 0., 1.57999748e-03, 0.,
          0., 0., 0., 0., 0., 0., 8.46915122e-04, 0., 0., 0., 0., 0., 0.,
          0., 1.81221624e-03, 0., 0., 0., 0., 0., 0., 0., 3.36944708e-04,
          0., 0., 0., 0. ]
      - [ 1.02898102e-05, 6.68837674e-05, 2.67535070e-04, 9.82959867e-01,
          3.60143349e-05, 7.71735795e-05, 5.65939554e-05, 0.,
          7.20286698e-05, 1.03927078e-03, 3.21556581e-03, 8.98814946e-03,
          4.42461838e-04, 5.89606119e-03, 1.91956405e-02, 2.49013398e-03,
          4.88766003e-04, 1.33710936e-01, 6.54020309e-02, 1.53009482e-02,
          3.89469322e-03, 6.84581101e-02, 6.24179877e-02, 1.02383608e-03,
          3.24129011e-04, 1.61807258e-02, 3.32669578e-02, 3.49853537e-03,
          1.59492061e-04, 3.65288259e-04, 0., 0., 2.46955431e-04,
          6.01953885e-04, 7.97460321e-04, 2.81837899e-02, 2.46955431e-04,
          0., 0., 0., 8.74633843e-05, 1.02898102e-05, 6.17388578e-05,
          8.29873234e-03, 3.03549401e-04, 0., 0., 0., 1.02898102e-05,
          1.54347144e-05, 0., 7.22859148e-03, 1.59492061e-04, 0., 0., 0.,
          5.65939554e-05, 0., 5.14490512e-06, 1.11129950e-03, 0., 0., 0.,
          0. ]
      - [ 2.63022630e-05, 1.61571050e-04, 2.63774116e-03, 9.37059462e-01,
          7.81552983e-04, 4.24593687e-04, 4.64798557e-03, 3.45964938e-01,
          2.25447966e-05, 5.71134849e-04, 3.35541740e-03, 2.77488884e-02,
          1.16406307e-02, 1.94298569e-02, 2.05533393e-03, 2.81622093e-02,
          2.63022630e-05, 3.75746617e-06, 0., 1.10845256e-03,
          7.72159314e-03, 7.32705928e-04, 0., 0., 0., 0., 0.,
          8.19127599e-04, 1.87873302e-05, 0., 0., 0., 7.51493235e-06, 0.,
          0., 3.12621193e-03, 3.75746617e-06, 0., 0., 0., 0., 0., 0.,
          2.63398373e-03, 0., 0., 0., 0., 3.75746617e-06, 0., 0.,
          5.12142619e-03, 0., 0., 0., 0., 1.50298647e-05, 3.75746617e-06,
          7.51493235e-06, 1.21366163e-03, 7.89067926e-05, 0., 0., 0. ]
      - [ 1.24389435e-05, 1.24389435e-05, 1.57559945e-04, 9.55402076e-01,
          1.78291521e-04, 1.28121115e-03, 2.32193619e-03, 1.96858719e-01,
          8.29262899e-06, 1.55486795e-03, 1.26835760e-02, 2.42435001e-02,
          9.12189207e-05, 3.03634610e-02, 6.17800839e-03, 2.14534461e-01,
          0., 1.03657861e-04, 6.88288186e-04, 1.36828376e-03, 0.,
          2.07315716e-05, 0., 0., 0., 0., 0., 9.20481805e-04, 0., 0., 0.,
          0., 0., 0., 8.29262899e-06, 4.37850831e-03, 0., 0., 0., 0., 0.,
          0., 0., 6.89117471e-03, 0., 0., 0., 0., 0., 0., 0.,
          2.23859511e-02, 0., 0., 0., 0., 0., 4.14631450e-06,
          1.65852580e-05, 1.17962649e-02, 2.90242024e-05, 1.16096810e-04,
          4.14631450e-06, 0. ]
      - [ 7.27947554e-06, 2.32943217e-04, 8.37139669e-05, 1.05552397e-04,
          0., 0., 0., 0., 1.09192133e-05, 2.24571815e-03, 3.00423950e-02,
          1.04180217e-01, 0., 8.04382027e-04, 5.87344468e-02,
          1.52290270e-01, 0., 4.73165928e-05, 2.48193722e-02,
          9.80275989e-01, 0., 0., 5.66343218e-03, 4.36768532e-05, 0., 0.,
          0., 2.48958054e-03, 0., 0., 0., 0., 0., 0., 0., 8.22580711e-04,
          0., 0., 0., 0., 0., 3.63973777e-06, 0., 2.72980338e-04, 0., 0.,
          0., 0., 0., 7.27947554e-06, 0., 3.63973777e-05, 0., 0., 0., 0.,
          0., 7.27947554e-06, 0., 1.45589511e-05, 0., 0., 0., 0. ]
      - [ 3.62040737e-06, 1.62918324e-04, 2.66461982e-03, 9.66391742e-01,
          3.62040737e-06, 8.61656968e-04, 1.82106486e-03, 2.52479970e-01,
          0., 2.35326472e-03, 2.60995161e-02, 1.96153671e-02,
          2.17224442e-05, 2.02923827e-02, 1.25917764e-02, 2.00389549e-02,
          0., 3.62040737e-06, 3.62040737e-05, 1.26714259e-03, 0.,
          3.62040737e-06, 0., 0., 0., 0., 7.96489621e-05, 8.97861028e-04,
          0., 0., 0., 0., 0., 0., 1.01371406e-04, 4.94547654e-03, 0., 0.,
          0., 0., 0., 3.62040737e-06, 4.70652958e-05, 2.03104853e-03, 0.,
          0., 0., 0., 0., 0., 1.08612221e-05, 6.41536200e-03, 0., 0., 0.,
          0., 0., 0., 1.23093851e-04, 1.46336863e-02, 0., 0., 0., 0. ]
      - [ 0., 0., 1.85690075e-03, 9.52878952e-01, 0., 6.55073323e-04,
          3.00198956e-03, 3.03020418e-01, 0., 5.15805777e-06,
          9.80030964e-05, 4.05939156e-03, 4.12644622e-05, 7.94340915e-04,
          9.43924591e-04, 1.28951448e-04, 0., 0., 0., 5.72544406e-04, 0.,
          0., 0., 0., 0., 0., 0., 6.75705553e-04, 0., 0., 0., 0., 0., 0.,
          0., 4.22960753e-03, 0., 0., 0., 0., 0., 0., 0., 4.95173561e-04,
          0., 0., 0., 0., 0., 0., 0., 2.47586775e-03, 0., 0., 0., 0., 0.,
          0., 0., 1.20131169e-02, 0., 0., 0., 0. ]
      - [ 6.83004464e-06, 3.61992366e-04, 4.91763232e-04, 2.86397427e-01,
          0., 1.16110758e-04, 2.04901335e-05, 6.83004464e-06, 0.,
          2.16512405e-03, 2.38436852e-02, 1.60642657e-02, 3.55162309e-04,
          4.49416926e-03, 1.07983008e-01, 1.58149689e-01, 2.93691934e-04,
          2.32221515e-04, 8.33265425e-04, 5.58014633e-03, 7.64965022e-04,
          3.48332280e-04, 1.43430938e-04, 6.83004473e-05, 1.84411212e-04,
          3.41502222e-04, 3.89312539e-04, 1.26970531e-02, 6.83004464e-06,
          0., 0., 0., 2.04901335e-05, 2.59541703e-04, 4.09802684e-04,
          9.28168893e-01, 0., 0., 0., 0., 0., 0., 0., 1.36901408e-01, 0.,
          0., 0., 0., 0., 0., 0., 4.32341825e-03, 0., 0., 0., 0., 0.,
          1.36600893e-05, 6.83004464e-06, 4.50782944e-04, 0., 0., 0., 0. ]
      - [ 0., 0., 0., 9.92197633e-01, 0., 0., 0., 7.09863571e-06, 0.,
          1.06479538e-05, 1.21741602e-03, 7.52810314e-02, 0.,
          2.12959076e-05, 5.83862774e-02, 7.96999335e-02, 0., 0.,
          2.66198826e-04, 1.05485730e-02, 0., 0., 3.54931785e-06, 0., 0.,
          0., 0., 2.37804299e-04, 0., 0., 0., 0., 0., 0., 0.,
          9.19273298e-04, 0., 0., 0., 0., 0., 0., 0., 5.96285390e-04, 0.,
          0., 0., 0., 0., 0., 0., 1.26355712e-03, 0., 0., 0., 0., 0., 0.,
          0., 1.10028850e-04, 0., 0., 0., 0. ]
      - [ 0., 0., 0., 9.95028257e-01, 0., 0., 0., 0., 0., 0.,
          2.82950676e-03, 2.73718610e-02, 0., 3.69283080e-04,
          6.17950335e-02, 2.62440499e-02, 0., 0., 9.02747456e-03,
          1.35786384e-02, 0., 2.33047572e-03, 2.98620258e-02,
          1.24757804e-04, 0., 0., 2.99418716e-05, 5.87858725e-03, 0., 0.,
          0., 0., 0., 0., 5.48934331e-05, 9.04743560e-03, 0., 0., 0., 0.,
          0., 0., 0., 5.79425134e-02, 0., 0., 0., 0., 0., 0., 0.,
          4.12698789e-03, 0., 0., 0., 0., 0., 0., 0., 4.19186195e-04, 0.,
          0., 0., 0. ]
      - [ 4.28845888e-05, 4.28845888e-05, 4.57435613e-04, 9.96723592e-01,
          4.76495416e-06, 0., 0., 0., 1.62008437e-04, 2.21093884e-03,
          4.88884281e-03, 6.75670477e-03, 1.42948629e-04, 2.87231430e-02,
          6.70619681e-02, 6.95683295e-04, 5.24144962e-05, 8.10518675e-03,
          2.71554738e-02, 1.14597147e-02, 7.62392665e-05, 2.12516962e-03,
          9.89204459e-03, 3.33546777e-05, 3.81196332e-05, 2.71602388e-04,
          5.28909906e-04, 1.93457142e-03, 4.76495416e-06, 0., 0., 0., 0.,
          1.14358903e-04, 1.18647353e-03, 5.76559454e-03, 0., 0., 0., 0.,
          0., 0., 1.83450733e-03, 7.24749546e-03, 0., 0., 0., 0., 0., 0.,
          3.81196332e-05, 3.58801056e-03, 0., 0., 0., 0., 0.,
          9.52990831e-06, 1.42948629e-05, 4.00256162e-04, 0., 0., 0., 0. ]
      - [ 0., 0., 3.65284286e-05, 9.97367620e-01, 0., 1.36981607e-05,
          2.28302670e-05, 0., 3.01359541e-04, 4.62084636e-03,
          1.40588786e-02, 2.73278300e-02, 1.55245827e-04, 4.71171066e-02,
          4.54733260e-02, 1.38808030e-03, 0., 0., 2.28302670e-05,
          9.58871242e-05, 0., 0., 0., 0., 0., 0., 0., 1.36981607e-05, 0.,
          0., 0., 0., 0., 0., 0., 8.21889626e-05, 0., 0., 0., 0., 0., 0.,
          0., 1.01822999e-03, 0., 0., 0., 0., 0., 0., 0., 1.00453175e-03,
